svm_type c_svc
kernel_type rbf
gamma 0.125
nr_class 2
total_sv 16455
rho 2.07981
label 1 -1
probA -1.25932
probB -0.215413
nr_sv 8399 8056
SV
8192 1:1 2:3 3:6 4:0.5 5:0.4 6:1 
3543.141144209536 1:2 2:2.8 3:5 4:1 5:0.4 6:1 
2991.641726816135 1:4 2:2.2 3:4 4:1 5:0.4 6:1 
6763.713961820551 1:0 2:3 3:8 4:0.1875 5:0.225 6:0.4375 
8192 1:2 2:0.8 3:2 4:0.125 5:0.05 6:0.125 
8192 1:2 2:0.8 3:2 4:0.125 5:0.05 6:0.125 
8192 1:0 2:2.8 3:7 4:0.375 5:0.1375 6:0.375 
8192 1:4 2:3.2 3:6 4:0.0076335878 5:0.0045801527 6:0.0076335878 
8192 1:7 2:6.4 3:8 4:0.54961832 5:0.43206107 6:0.5648855 
8192 1:6 2:4.2 3:7 4:0.0076335878 5:0.0091603053 6:0.015267176 
8192 1:3 2:2.8 3:4 4:0.0076335878 5:0.0030534351 6:0.0076335878 
8192 1:8 2:3.6 3:8 4:0.0076335878 5:0.010687023 6:0.030534351 
8192 1:3 2:2.8 3:6 4:0.076335878 5:0.021374046 6:0.076335878 
8192 1:3 2:3.4 3:6 4:0.0076335878 5:0.0061068702 6:0.0076335878 
8192 1:6 2:5.8 3:7 4:0.0076335878 5:0.12366412 6:0.53435115 
8192 1:1 2:4 3:7 4:0.0076335878 5:0.010687023 6:0.015267176 
8192 1:6 2:6 3:7 4:0.022900763 5:0.01221374 6:0.022900763 
8192 1:7 2:5.8 3:7 4:0.015267176 5:0.21221374 6:0.52671756 
8192 1:6 2:2.6 3:6 4:0.015267176 5:0.024427481 6:0.076335878 
8192 1:5 2:7.4 3:9 4:0.14285714 5:0.31428571 6:0.71428571 
8192 1:7 2:6.8 3:9 4:0.28571429 5:0.31428571 6:0.57142857 
8192 1:0 2:0.8 3:3 4:0.14285714 5:0.028571429 6:0.14285714 
8192 1:6 2:4.4 3:8 4:0.14285714 5:0.028571429 6:0.14285714 
8192 1:6 2:6.4 3:9 4:0.28571429 5:0.2 6:0.57142857 
8192 1:1 2:3.2 3:6 4:0.05 5:0.03 6:0.05 
8192 1:4 2:3 3:6 4:0.05 5:0.04 6:0.05 
8192 1:0 2:4.2 3:9 4:0.05 5:0.03 6:0.05 
8192 1:0 2:1.2 3:2 4:0.05 5:0.06 6:0.15 
8192 1:3 2:3.4 3:9 4:0.05 5:0.13 6:0.4 
8192 1:1 2:4.2 3:9 4:0.2 5:0.12 6:0.4 
393.5915933457906 1:8 2:5.4 3:9 4:0.6 5:0.36 6:0.6 
8192 1:9 2:6.4 3:9 4:0.2 5:0.28 6:0.4 
8192 1:3 2:2 3:4 4:0.2 5:0.16 6:0.4 
8192 1:9 2:7 3:9 4:0.058823529 5:0.070588235 6:0.23529412 
8192 1:3 2:4.2 3:9 4:0.15384615 5:0.076923077 6:0.15384615 
8192 1:0 2:2.4 3:8 4:0.15384615 5:0.13846154 6:0.46153846 
8192 1:0 2:0 3:0 4:0.076923077 5:0.046153846 6:0.076923077 
8192 1:2 2:1 3:2 4:0.076923077 5:0.12307692 6:0.23076923 
8192 1:6 2:3 3:6 4:0.076923077 5:0.015384615 6:0.076923077 
8192 1:2 2:0.8 3:2 4:0.076923077 5:0.076923077 6:0.23076923 
3118.175514341773 1:1 2:2.4 3:9 4:0.23076923 5:0.18461538 6:0.23076923 
8192 1:0 2:1.2 3:6 4:0.076923077 5:0.12307692 6:0.15384615 
8192 1:0 2:6.2 3:9 4:0.076923077 5:0.076923077 6:0.15384615 
8192 1:9 2:3 3:9 4:0.076923077 5:0.030769231 6:0.076923077 
8192 1:0 2:0.8 3:4 4:0.076923077 5:0.10769231 6:0.23076923 
8192 1:9 2:7.4 3:9 4:0.076923077 5:0.030769231 6:0.076923077 
8192 1:9 2:4.2 3:9 4:0.058823529 5:0.035294118 6:0.11764706 
8192 1:2 2:4.4 3:8 4:0.0055248619 5:0.0055248619 6:0.0055248619 
8192 1:1 2:1.4 3:3 4:0.0055248619 5:0.0022099448 6:0.0055248619 
8192 1:2 2:2.8 3:7 4:0.022099448 5:0.029834254 6:0.1160221 
2430.26620148244 1:6 2:5.6 3:8 4:0.027624309 5:0.44088398 6:0.79558011 
8192 1:8 2:3.4 3:8 4:0.0055248619 5:0.0044198895 6:0.0055248619 
8192 1:0 2:2 3:6 4:0.011049724 5:0.0044198895 6:0.011049724 
8192 1:4 2:1.6 3:4 4:0.093922652 5:0.026519337 6:0.093922652 
8192 1:7 2:2.8 3:7 4:0.0055248619 5:0.0044198895 6:0.0055248619 
8192 1:8 2:6 3:9 4:0.0055248619 5:0.0066298343 6:0.011049724 
8192 1:5 2:3.8 3:7 4:0.0055248619 5:0.0022099448 6:0.0055248619 
8192 1:0 2:1.6 3:7 4:0.0055248619 5:0.0055248619 6:0.011049724 
8192 1:0 2:3 3:8 4:0.047619048 5:0.0095238095 6:0.047619048 
8192 1:9 2:6.2 3:9 4:0.14285714 5:0.057142857 6:0.14285714 
8192 1:2 2:2.8 3:5 4:0.047619048 5:0.038095238 6:0.047619048 
8192 1:0 2:1.4 3:7 4:0.095238095 5:0.028571429 6:0.095238095 
8192 1:4 2:2.2 3:4 4:0.047619048 5:0.028571429 6:0.047619048 
8192 1:6 2:4.8 3:7 4:0.095238095 5:0.057142857 6:0.095238095 
8192 1:7 2:2 3:7 4:0.047619048 5:0.028571429 6:0.095238095 
8192 1:8 2:5.2 3:9 4:0.047619048 5:0.038095238 6:0.14285714 
8192 1:7 2:4.4 3:7 4:0.047619048 5:0.028571429 6:0.047619048 
7225.090502448361 1:9 2:3.2 3:9 4:0.72727273 5:0.18787879 6:0.72727273 
8192 1:0 2:2 3:4 4:0.12121212 5:0.096969697 6:0.15151515 
8192 1:7 2:4.6 3:7 4:0.21428571 5:0.071428571 6:0.21428571 
7607.032491395948 1:2 2:3 3:9 4:0.57142857 5:0.44285714 6:0.57142857 
8192 1:7 2:6 3:9 4:0.14285714 5:0.14285714 6:0.28571429 
2082.477705219018 1:0 2:2.4 3:4 4:0.5 5:0.34285714 6:0.64285714 
8192 1:9 2:2.6 3:9 4:0.57142857 5:0.35714286 6:0.57142857 
8192 1:7 2:6.2 3:9 4:0.21428571 5:0.21428571 6:0.42857143 
8192 1:7 2:4 3:7 4:0.071428571 5:0.11428571 6:0.21428571 
242.0596129929537 1:4 2:4.4 3:7 4:0.6 5:0.34666667 6:0.61333333 
6112.653711953104 1:6 2:6.4 3:9 4:0.64 5:0.38133333 6:0.64 
8192 1:9 2:2.6 3:9 4:0.16 5:0.037333333 6:0.16 
8192 1:7 2:5 3:7 4:0.61333333 5:0.344 6:0.61333333 
8192 1:9 2:2.6 3:9 4:0.10666667 5:0.037333333 6:0.10666667 
8192 1:6 2:5.4 3:8 4:0.18181818 5:0.054545455 6:0.18181818 
8192 1:5 2:4.2 3:6 4:0.18181818 5:0.054545455 6:0.18181818 
8192 1:9 2:5.8 3:9 4:0.69512195 5:0.17317073 6:0.69512195 
8192 1:8 2:4.4 3:8 4:0.125 5:0.05 6:0.125 
8192 1:9 2:4.2 3:9 4:0.125 5:0.05 6:0.125 
8192 1:4 2:2.4 3:4 4:0.125 5:0.05 6:0.125 
8192 1:9 2:4.8 3:9 4:0.125 5:0.025 6:0.125 
8192 1:9 2:5.4 3:9 4:0.125 5:0.05 6:0.125 
8192 1:6 2:5.6 3:8 4:0.25 5:0.075 6:0.25 
8192 1:6 2:2 3:6 4:0.125 5:0.025 6:0.125 
8192 1:8 2:7 3:9 4:0.125 5:0.075 6:0.125 
8192 1:9 2:6.4 3:9 4:0.125 5:0.075 6:0.125 
8192 1:9 2:5.4 3:9 4:0.125 5:0.075 6:0.125 
8192 1:8 2:4.4 3:8 4:0.125 5:0.075 6:0.25 
8192 1:9 2:6.8 3:9 4:0.125 5:0.05 6:0.125 
8192 1:8 2:6.6 3:9 4:0.66666667 5:0.3 6:0.66666667 
8192 1:8 2:4.8 3:8 4:0.66666667 5:0.15 6:0.66666667 
8192 1:8 2:6 3:8 4:0.66666667 5:0.3 6:0.66666667 
8192 1:1 2:1.6 3:4 4:0.25 5:0.05 6:0.25 
8192 1:9 2:4.8 3:9 4:0.75 5:0.25 6:0.75 
8192 1:6 2:3.4 3:6 4:0.25 5:0.05 6:0.25 
8192 1:6 2:3.6 3:7 4:0.25 5:0.05 6:0.25 
8192 1:3 2:4 3:6 4:0.25 5:0.15 6:0.25 
5158.968633496123 1:8 2:4.8 3:8 4:0.75 5:0.65 6:0.75 
8192 1:2 2:4.6 3:9 4:0.25 5:0.1 6:0.25 
8192 1:2 2:2.2 3:4 4:0.030769231 5:0.0092307692 6:0.030769231 
8192 1:1 2:2.4 3:4 4:0.015384615 5:0.058461538 6:0.10769231 
8192 1:8 2:5.2 3:8 4:0.14285714 5:0.085714286 6:0.14285714 
8192 1:7 2:5 3:7 4:0.21428571 5:0.057142857 6:0.21428571 
8192 1:2 2:3.4 3:7 4:0.14285714 5:0.085714286 6:0.14285714 
8192 1:0 2:3.2 3:5 4:0.071428571 5:0.057142857 6:0.071428571 
8192 1:0 2:1 3:2 4:0.071428571 5:0.014285714 6:0.071428571 
8192 1:3 2:2.6 3:5 4:0.071428571 5:0.057142857 6:0.071428571 
8192 1:2 2:1 3:3 4:0.14285714 5:0.071428571 6:0.14285714 
8192 1:6 2:5.8 3:7 4:0.032258065 5:0.051612903 6:0.12903226 
8192 1:8 2:7.8 3:9 4:0.032258065 5:0.077419355 6:0.12903226 
8192 1:7 2:7.8 3:9 4:0.096774194 5:0.070967742 6:0.12903226 
8192 1:9 2:7.6 3:9 4:0.12903226 5:0.077419355 6:0.12903226 
8192 1:7 2:6.6 3:9 4:0.032258065 5:0.058064516 6:0.12903226 
8192 1:7 2:6.8 3:8 4:0.064516129 5:0.019354839 6:0.064516129 
8192 1:9 2:5.8 3:9 4:0.12903226 5:0.21290323 6:0.51612903 
8192 1:7 2:7.8 3:9 4:0.096774194 5:0.077419355 6:0.12903226 
8192 1:0 2:0.2 3:1 4:0.023622047 5:0.037795276 6:0.11811024 
8192 1:4 2:4.2 3:7 4:0.039370079 5:0.047244094 6:0.1023622 
8192 1:0 2:0.8 3:4 4:0.0078740157 5:0.028346457 6:0.086614173 
8192 1:2 2:3.8 3:9 4:0.039370079 5:0.17637795 6:0.4015748 
8192 1:1 2:3.2 3:8 4:0.45669291 5:0.41102362 6:0.51968504 
8192 1:4 2:2.2 3:7 4:0.05511811 5:0.15748031 6:0.49606299 
8192 1:6 2:5.4 3:8 4:0.0078740157 5:0.17795276 6:0.45669291 
8192 1:0 2:0 3:0 4:0.086614173 5:0.069291339 6:0.21259843 
8192 1:3 2:3.6 3:7 4:0.015748031 5:0.012598425 6:0.023622047 
8192 1:0 2:0.8 3:4 4:0.49606299 5:0.1496063 6:0.49606299 
1182.021560797594 1:6 2:6.4 3:7 4:0.35897436 5:0.25128205 6:0.76923077 
5549.482400122016 1:9 2:3.6 3:9 4:0.69230769 5:0.17435897 6:0.69230769 
8192 1:7 2:2.6 3:7 4:0.086956522 5:0.034782609 6:0.086956522 
8192 1:6 2:4.6 3:8 4:0.043478261 5:0.026086957 6:0.086956522 
8192 1:7 2:6.4 3:7 4:0.043478261 5:0.16521739 6:0.43478261 
8192 1:4 2:5.6 3:8 4:0.043478261 5:0.07826087 6:0.26086957 
8192 1:8 2:5.4 3:8 4:0.043478261 5:0.017391304 6:0.043478261 
8192 1:9 2:4 3:9 4:0.043478261 5:0.034782609 6:0.086956522 
8192 1:3 2:4.8 3:8 4:0.086956522 5:0.043478261 6:0.086956522 
1574.626831193483 1:7 2:6.4 3:7 4:0.53846154 5:0.4 6:0.53846154 
8192 1:9 2:4.2 3:9 4:0.076923077 5:0.030769231 6:0.076923077 
8192 1:8 2:3.2 3:8 4:0.15384615 5:0.046153846 6:0.15384615 
8192 1:7 2:5.8 3:7 4:0.46153846 5:0.35384615 6:0.53846154 
8192 1:7 2:4 3:7 4:0.15384615 5:0.12307692 6:0.38461538 
8192 1:5 2:2 3:5 4:0.15384615 5:0.061538462 6:0.15384615 
8192 1:4 2:4.6 3:6 4:0.15384615 5:0.076923077 6:0.15384615 
8192 1:5 2:2.4 3:5 4:0.076923077 5:0.061538462 6:0.076923077 
8192 1:4 2:1.8 3:4 4:0.15384615 5:0.076923077 6:0.15384615 
8192 1:1 2:1.2 3:4 4:0.024390244 5:0.014634146 6:0.024390244 
8192 1:0 2:1.6 3:4 4:0.024390244 5:0.014634146 6:0.024390244 
8192 1:3 2:2 3:3 4:0.073170732 5:0.019512195 6:0.073170732 
8192 1:0 2:0.6 3:3 4:0.024390244 5:0.019512195 6:0.024390244 
8192 1:5 2:2.6 3:5 4:0.048780488 5:0.0097560976 6:0.048780488 
8192 1:0 2:6.2 3:9 4:0.024390244 5:0.0048780488 6:0.024390244 
8192 1:2 2:3.4 3:8 4:0.024390244 5:0.19512195 6:0.53658537 
8192 1:0 2:1.4 3:4 4:0.024390244 5:0.014634146 6:0.024390244 
8192 1:0 2:1.6 3:4 4:0.024390244 5:0.014634146 6:0.024390244 
8192 1:0 2:3.4 3:8 4:0.024390244 5:0.014634146 6:0.048780488 
8192 1:1 2:0.8 3:2 4:0.048780488 5:0.034146341 6:0.073170732 
8192 1:0 2:2.6 3:6 4:0.073170732 5:0.2195122 6:0.43902439 
8192 1:3 2:2.4 3:6 4:0.048780488 5:0.068292683 6:0.19512195 
8192 1:4 2:4.8 3:9 4:0.095238095 5:0.09047619 6:0.19047619 
8192 1:0 2:5.2 3:8 4:0.023809524 5:0.023809524 6:0.047619048 
8192 1:9 2:6.4 3:9 4:0.071428571 5:0.014285714 6:0.071428571 
8192 1:9 2:6.8 3:9 4:0.071428571 5:0.019047619 6:0.071428571 
8192 1:5 2:4.6 3:9 4:0.023809524 5:0.0047619048 6:0.023809524 
8192 1:0 2:2.6 3:8 4:0.047619048 5:0.019047619 6:0.047619048 
8192 1:3 2:5.8 3:9 4:0.047619048 5:0.042857143 6:0.095238095 
8192 1:4 2:4.8 3:7 4:0.071428571 5:0.042857143 6:0.071428571 
8192 1:9 2:5.8 3:9 4:0.071428571 5:0.019047619 6:0.071428571 
8192 1:9 2:7.8 3:9 4:0.071428571 5:0.1047619 6:0.19047619 
8192 1:1 2:2.2 3:6 4:0.19047619 5:0.22857143 6:0.47619048 
663.9654130950587 1:0 2:2.4 3:6 4:0.45238095 5:0.31904762 6:0.47619048 
8192 1:9 2:5.8 3:9 4:0.071428571 5:0.042857143 6:0.095238095 
8192 1:0 2:2.6 3:6 4:0.42857143 5:0.29047619 6:0.47619048 
8192 1:5 2:5 3:8 4:0.047619048 5:0.023809524 6:0.047619048 
8192 1:9 2:3.8 3:9 4:0.047619048 5:0.0095238095 6:0.047619048 
8192 1:2 2:4.8 3:8 4:0.16666667 5:0.24285714 6:0.52380952 
8192 1:7 2:5.4 3:9 4:0.047619048 5:0.023809524 6:0.047619048 
8192 1:3 2:3.2 3:6 4:0.023809524 5:0.0047619048 6:0.023809524 
8192 1:7 2:7 3:9 4:0.11904762 5:0.1 6:0.19047619 
8192 1:8 2:5 3:9 4:0.095238095 5:0.042857143 6:0.095238095 
8192 1:7 2:3 3:8 4:0.023809524 5:0.028571429 6:0.071428571 
8192 1:4 2:6.8 3:9 4:0.090909091 5:0.25454545 6:0.81818182 
8192 1:7 2:7.8 3:9 4:0.090909091 5:0.36363636 6:0.90909091 
8192 1:6 2:7 3:9 4:0.18181818 5:0.41818182 6:0.90909091 
8192 1:9 2:6.6 3:9 4:0.090909091 5:0.27272727 6:0.90909091 
8192 1:7 2:6.8 3:9 4:0.045454545 5:0.013636364 6:0.045454545 
8192 1:7 2:7.2 3:8 4:0.045454545 5:0.013636364 6:0.045454545 
8192 1:8 2:7.6 3:8 4:0.045454545 5:0.018181818 6:0.045454545 
8192 1:6 2:4.8 3:7 4:0.038461538 5:0.05 6:0.096153846 
8192 1:1 2:0.4 3:1 4:0.019230769 5:0.026923077 6:0.057692308 
8192 1:0 2:1 3:4 4:0.019230769 5:0.046153846 6:0.096153846 
8192 1:8 2:3 3:8 4:0.038461538 5:0.011538462 6:0.038461538 
8192 1:2 2:3 3:6 4:0.019230769 5:0.023076923 6:0.076923077 
8192 1:1 2:1.6 3:5 4:0.038461538 5:0.076923077 6:0.23076923 
8192 1:0 2:3 3:5 4:0.019230769 5:0.061538462 6:0.19230769 
8192 1:7 2:3.4 3:7 4:0.019230769 5:0.019230769 6:0.038461538 
228.2023798418538 1:9 2:7.2 3:9 4:0.12121212 5:0.16969697 6:0.33333333 
8192 1:7 2:7.6 3:9 4:0.12121212 5:0.10909091 6:0.21212121 
8192 1:7 2:7.2 3:8 4:0.03030303 5:0.012121212 6:0.03030303 
8192 1:7 2:6.8 3:9 4:0.060606061 5:0.018181818 6:0.060606061 
8192 1:8 2:7.6 3:8 4:0.060606061 5:0.018181818 6:0.060606061 
8192 1:7 2:7.2 3:8 4:0.060606061 5:0.018181818 6:0.060606061 
8192 1:9 2:6 3:9 4:0.03030303 5:0.018181818 6:0.060606061 
8192 1:7 2:7.2 3:8 4:0.03030303 5:0.042424242 6:0.090909091 
8192 1:2 2:1.2 3:4 4:0.060606061 5:0.012121212 6:0.060606061 
8192 1:6 2:4.8 3:8 4:0.15151515 5:0.16363636 6:0.60606061 
8192 1:1 2:3.8 3:6 4:0.060606061 5:0.042424242 6:0.12121212 
8192 1:6 2:4.8 3:7 4:0.038461538 5:0.05 6:0.096153846 
8192 1:1 2:0.4 3:1 4:0.019230769 5:0.026923077 6:0.057692308 
8192 1:0 2:1 3:4 4:0.019230769 5:0.046153846 6:0.096153846 
8192 1:8 2:3 3:8 4:0.038461538 5:0.011538462 6:0.038461538 
8192 1:1 2:1.6 3:5 4:0.038461538 5:0.076923077 6:0.23076923 
8192 1:0 2:3 3:5 4:0.019230769 5:0.061538462 6:0.19230769 
8192 1:7 2:3.4 3:7 4:0.019230769 5:0.019230769 6:0.038461538 
8192 1:4 2:2.8 3:5 4:0.2 5:0.04 6:0.2 
8192 1:4 2:3.6 3:7 4:0.2 5:0.04 6:0.2 
8192 1:7 2:4.6 3:8 4:0.2 5:0.04 6:0.2 
8192 1:1 2:0.6 3:2 4:0.2 5:0.08 6:0.2 
8192 1:5 2:3 3:6 4:0.2 5:0.04 6:0.2 
8192 1:0 2:1.4 3:6 4:0.2 5:0.08 6:0.2 
8192 1:0 2:2.8 3:6 4:0.4375 5:0.1125 6:0.4375 
2628.463300560601 1:4 2:6 3:7 4:0.5 5:0.5 6:1 
8192 1:0 2:3 3:7 4:0.5 5:0.4 6:1 
2693.153312480145 1:6 2:3.4 3:6 4:1 5:0.5 6:1 
5774.639594827218 1:7 2:5.6 3:7 4:0.5 5:0.6 6:1 
8192 1:0 2:0.8 3:2 4:0.009009009 5:0.010810811 6:0.018018018 
8192 1:4 2:2.8 3:4 4:0.036036036 5:0.03963964 6:0.081081081 
8192 1:4 2:3.8 3:4 4:0.081081081 5:0.079279279 6:0.15315315 
8192 1:0 2:1.2 3:2 4:0.018018018 5:0.016216216 6:0.018018018 
8192 1:1 2:0.8 3:3 4:0.018018018 5:0.023423423 6:0.063063063 
8192 1:6 2:4.4 3:6 4:0.027027027 5:0.014414414 6:0.027027027 
8192 1:1 2:1.6 3:4 4:0.018018018 5:0.014414414 6:0.018018018 
8192 1:7 2:3 3:7 4:0.018018018 5:0.012612613 6:0.027027027 
8192 1:1 2:2 3:4 4:0.018018018 5:0.025225225 6:0.045045045 
8192 1:8 2:3.8 3:8 4:0.10810811 5:0.048648649 6:0.10810811 
8192 1:1 2:1.2 3:2 4:0.009009009 5:0.016216216 6:0.018018018 
8192 1:9 2:4.4 3:9 4:0.16666667 5:0.23333333 6:0.5 
8192 1:8 2:3.4 3:8 4:0.16666667 5:0.033333333 6:0.16666667 
8192 1:0 2:3.4 3:5 4:0.28571429 5:0.17142857 6:0.28571429 
8192 1:9 2:6 3:9 4:0.14285714 5:0.085714286 6:0.14285714 
8192 1:9 2:4.4 3:9 4:0.14285714 5:0.057142857 6:0.14285714 
8192 1:0 2:4.4 3:7 4:0.023255814 5:0.012403101 6:0.023255814 
8192 1:3 2:6.4 3:8 4:0.015503876 5:0.1255814 6:0.52713178 
8192 1:4 2:6.8 3:8 4:0.0078740157 5:0.12125984 6:0.51968504 
8192 1:3 2:5.2 3:7 4:0.023622047 5:0.012598425 6:0.023622047 
8192 1:7 2:7.6 3:9 4:0.054054054 5:0.037837838 6:0.081081081 
8192 1:9 2:6 3:9 4:0.027027027 5:0.032432432 6:0.054054054 
8192 1:7 2:7.2 3:9 4:0.64864865 5:0.21621622 6:0.64864865 
8192 1:9 2:6 3:9 4:0.15 5:0.12 6:0.2 
8192 1:4 2:4.8 3:7 4:0.15 5:0.19 6:0.5 
8192 1:8 2:7.8 3:9 4:0.6 5:0.2 6:0.6 
2091.994780744665 1:6 2:3.2 3:7 4:0.7 5:0.47 6:0.9 
8192 1:2 2:4 3:8 4:0.28 5:0.192 6:0.48 
8192 1:8 2:5.4 3:8 4:0.04 5:0.104 6:0.4 
8192 1:5 2:5.4 3:8 4:0.08 5:0.024 6:0.08 
8192 1:2 2:1.6 3:3 4:0.08 5:0.064 6:0.16 
8192 1:4 2:5.4 3:8 4:0.04 5:0.192 6:0.48 
8192 1:4 2:3.6 3:8 4:0.04 5:0.032 6:0.12 
8192 1:6 2:3.4 3:6 4:0.75 5:0.6 6:1 
8192 1:4 2:2.6 3:4 4:0.25 5:0.1 6:0.25 
8192 1:7 2:4.2 3:7 4:0.75 5:0.45 6:1 
5411.53268370836 1:3 2:2.4 3:4 4:0.5 5:0.45 6:1 
8192 1:1 2:3.4 3:7 4:0.019230769 5:0.015384615 6:0.038461538 
8192 1:3 2:3 3:6 4:0.019230769 5:0.092307692 6:0.30769231 
8192 1:4 2:3.2 3:7 4:0.057692308 5:0.20769231 6:0.59615385 
8192 1:3 2:5 3:7 4:0.038461538 5:0.31923077 6:0.80769231 
7498.247922982667 1:6 2:4.4 3:6 4:0.73076923 5:0.49615385 6:0.75 
8192 1:2 2:4.4 3:6 4:0.019230769 5:0.14230769 6:0.65384615 
8192 1:2 2:2.4 3:9 4:0.23076923 5:0.17307692 6:0.30769231 
8192 1:1 2:2.4 3:4 4:0.038461538 5:0.12307692 6:0.30769231 
8192 1:7 2:3 3:7 4:0.057692308 5:0.29230769 6:0.75 
8192 1:1 2:2.4 3:5 4:0.21153846 5:0.23461538 6:0.34615385 
4276.451773790881 1:5 2:5 3:8 4:0.75 5:0.56153846 6:0.75 
8192 1:1 2:2.6 3:8 4:0.019230769 5:0.31153846 6:0.78846154 
8192 1:5 2:2.6 3:5 4:0.13461538 5:0.18461538 6:0.32692308 
8192 1:4 2:4.8 3:7 4:0.057692308 5:0.10384615 6:0.23076923 
7535.8012535209 1:5 2:4.4 3:6 4:0.038461538 5:0.28846154 6:0.73076923 
8192 1:1 2:3.4 3:8 4:0.019230769 5:0.13076923 6:0.32692308 
8192 1:4 2:4.4 3:6 4:0.65384615 5:0.43846154 6:0.75 
8192 1:2 2:2.8 3:8 4:0.019230769 5:0.065384615 6:0.26923077 
8192 1:0 2:1.2 3:3 4:0.057692308 5:0.11923077 6:0.30769231 
8192 1:0 2:2.6 3:7 4:0.21153846 5:0.05 6:0.21153846 
8192 1:1 2:1.6 3:4 4:0.057692308 5:0.19230769 6:0.34615385 
8192 1:7 2:3.4 3:7 4:0.75 5:0.33846154 6:0.76923077 
8192 1:0 2:3.6 3:7 4:0.038461538 5:0.13076923 6:0.55769231 
8192 1:5 2:3.8 3:6 4:0.019230769 5:0.15769231 6:0.73076923 
8192 1:3 2:4.4 3:7 4:0.019230769 5:0.15769231 6:0.75 
8192 1:4 2:2.4 3:5 4:0.15384615 5:0.14615385 6:0.21153846 
5042.830047198707 1:1 2:4.2 3:7 4:0.13461538 5:0.50769231 6:0.86538462 
8192 1:1 2:3 3:7 4:0.019230769 5:0.065384615 6:0.28846154 
8192 1:6 2:2.4 3:6 4:0.016129032 5:0.12580645 6:0.53225806 
8192 1:0 2:3 3:9 4:0.11290323 5:0.16774194 6:0.38709677 
8192 1:0 2:1.2 3:3 4:0.080645161 5:0.058064516 6:0.080645161 
8192 1:1 2:1.2 3:3 4:0.032258065 5:0.064516129 6:0.080645161 
8192 1:3 2:2.4 3:7 4:0.064516129 5:0.18387097 6:0.5483871 
8192 1:1 2:3 3:6 4:0.016129032 5:0.022580645 6:0.032258065 
8192 1:4 2:2.4 3:6 4:0.032258065 5:0.025806452 6:0.032258065 
8192 1:7 2:3.6 3:7 4:0.29032258 5:0.12903226 6:0.29032258 
8192 1:0 2:2.6 3:8 4:0.096774194 5:0.19354839 6:0.59677419 
8192 1:1 2:2.6 3:7 4:0.032258065 5:0.093548387 6:0.41935484 
8192 1:2 2:3.8 3:7 4:0.096774194 5:0.27419355 6:0.56451613 
8192 1:1 2:3.6 3:7 4:0.032258065 5:0.24193548 6:0.59677419 
7739.639231386667 1:4 2:3.2 3:6 4:0.048387097 5:0.36774194 6:0.53225806 
8192 1:1 2:1.4 3:4 4:0.032258065 5:0.021505376 6:0.032258065 
8192 1:0 2:2.8 3:6 4:0.021505376 5:0.010752688 6:0.021505376 
8192 1:6 2:6.4 3:9 4:0.16129032 5:0.12043011 6:0.16129032 
8192 1:9 2:6.6 3:9 4:0.12903226 5:0.15913978 6:0.21505376 
8192 1:4 2:7 3:9 4:0.13978495 5:0.13548387 6:0.16129032 
8192 1:5 2:4.4 3:8 4:0.028089888 5:0.44382022 6:0.79775281 
8192 1:0 2:3.4 3:8 4:0.60674157 5:0.28651685 6:0.75842697 
8192 1:2 2:3.2 3:6 4:0.0056179775 5:0.12022472 6:0.57303371 
8192 1:4 2:7 3:9 4:0.011235955 5:0.082022472 6:0.35393258 
8192 1:2 2:4.8 3:9 4:0.078651685 5:0.23707865 6:0.64044944 
8192 1:3 2:3.8 3:6 4:0.016853933 5:0.080898876 6:0.26404494 
8192 1:9 2:6.2 3:9 4:0.10674157 5:0.21235955 6:0.48876404 
8192 1:9 2:5.2 3:9 4:0.64044944 5:0.41573034 6:0.64044944 
8192 1:0 2:2.2 3:5 4:0.011235955 5:0.13033708 6:0.60674157 
8192 1:2 2:3.6 3:6 4:0.26404494 5:0.11235955 6:0.26404494 
8192 1:6 2:3.4 3:6 4:0.028089888 5:0.093258427 6:0.26404494 
947.1734564841842 1:9 2:3 3:9 4:0.66666667 5:0.13333333 6:0.66666667 
0.372006215237518 1:6 2:6 3:8 4:1 5:0.2 6:1 
8192 1:0 2:2.4 3:8 4:0.010869565 5:0.030434783 6:0.076086957 
8192 1:6 2:5.8 3:8 4:0.032608696 5:0.0086956522 6:0.032608696 
8192 1:0 2:0.2 3:1 4:0.02173913 5:0.026086957 6:0.043478261 
8192 1:0 2:0.2 3:1 4:0.097826087 5:0.11086957 6:0.17391304 
8192 1:1 2:3.2 3:8 4:0.032608696 5:0.032608696 6:0.076086957 
8192 1:1 2:2.2 3:7 4:0.032608696 5:0.015217391 6:0.032608696 
8192 1:5 2:5.2 3:9 4:0.065217391 5:0.097826087 6:0.11956522 
8192 1:1 2:1 3:2 4:0.032608696 5:0.015217391 6:0.032608696 
8192 1:7 2:6.2 3:7 4:0.054347826 5:0.02826087 6:0.054347826 
8192 1:0 2:1.2 3:4 4:0.010869565 5:0.013043478 6:0.032608696 
8192 1:0 2:0.8 3:3 4:0.010869565 5:0.017391304 6:0.032608696 
8192 1:4 2:4.4 3:7 4:0.010869565 5:0.002173913 6:0.010869565 
8192 1:6 2:5.2 3:7 4:0.15217391 5:0.14347826 6:0.20652174 
8192 1:0 2:0.4 3:1 4:0.16304348 5:0.15217391 6:0.23913043 
8192 1:4 2:1.2 3:4 4:0.02173913 5:0.02173913 6:0.043478261 
8192 1:0 2:0.4 3:1 4:0.076086957 5:0.12391304 6:0.20652174 
8192 1:6 2:5.8 3:9 4:0.125 5:0.075 6:0.125 
8192 1:5 2:6.2 3:9 4:0.0625 5:0.0875 6:0.125 
8192 1:5 2:1.4 3:5 4:0.0625 5:0.0125 6:0.0625 
8192 1:9 2:5 3:9 4:0.052631579 5:0.042105263 6:0.15789474 
8192 1:7 2:7.4 3:9 4:0.052631579 5:0.2 6:0.89473684 
3273.169642940391 1:9 2:4.8 3:9 4:0.68421053 5:0.15789474 6:0.68421053 
8192 1:4 2:5.2 3:7 4:0.052631579 5:0.021052632 6:0.052631579 
8192 1:7 2:5.2 3:7 4:0.052631579 5:0.021052632 6:0.052631579 
8192 1:9 2:6 3:9 4:0.052631579 5:0.063157895 6:0.21052632 
8192 1:2 2:5.4 3:9 4:0.15789474 5:0.042105263 6:0.15789474 
8192 1:3 2:0.8 3:3 4:0.125 5:0.025 6:0.125 
8192 1:8 2:5.2 3:8 4:0.125 5:0.225 6:0.5 
8192 1:0 2:3.2 3:6 4:0.125 5:0.15 6:0.5 
8192 1:3 2:4.6 3:7 4:0.375 5:0.075 6:0.375 
8192 1:3 2:2.6 3:4 4:0.375 5:0.075 6:0.375 
8192 1:5 2:6.2 3:9 4:0.011049724 5:0.0077348066 6:0.016574586 
8192 1:3 2:6.2 3:9 4:0.016574586 5:0.090607735 6:0.39226519 
8192 1:5 2:4.4 3:7 4:0.14285714 5:0.038095238 6:0.14285714 
8192 1:1 2:1.6 3:3 4:0.047619048 5:0.047619048 6:0.095238095 
8192 1:3 2:2 3:5 4:0.045454545 5:0.045454545 6:0.090909091 
8192 1:0 2:3.4 3:9 4:0.045454545 5:0.036363636 6:0.045454545 
8192 1:4 2:2.8 3:5 4:0.045454545 5:0.036363636 6:0.045454545 
8192 1:0 2:1.2 3:5 4:0.045454545 5:0.027272727 6:0.045454545 
8192 1:4 2:2.6 3:4 4:0.045454545 5:0.0090909091 6:0.045454545 
8192 1:2 2:4.8 3:9 4:0.045454545 5:0.045454545 6:0.090909091 
8192 1:3 2:3.4 3:5 4:0.045454545 5:0.054545455 6:0.090909091 
8192 1:2 2:1.4 3:2 4:0.045454545 5:0.018181818 6:0.045454545 
8192 1:0 2:2.4 3:7 4:0.045454545 5:0.027272727 6:0.045454545 
8192 1:6 2:4.8 3:9 4:0.045454545 5:0.027272727 6:0.045454545 
8192 1:0 2:0.6 3:2 4:0.045454545 5:0.036363636 6:0.13636364 
8192 1:0 2:1.8 3:6 4:0.13636364 5:0.081818182 6:0.22727273 
8192 1:5 2:4 3:9 4:0.13636364 5:0.045454545 6:0.13636364 
8192 1:7 2:4.6 3:7 4:0.045454545 5:0.027272727 6:0.045454545 
8192 1:7 2:2.4 3:7 4:0.045454545 5:0.027272727 6:0.045454545 
8192 1:4 2:4.2 3:7 4:0.045454545 5:0.027272727 6:0.045454545 
8192 1:5 2:1.4 3:5 4:0.045454545 5:0.018181818 6:0.045454545 
8192 1:4 2:4.8 3:9 4:0.045454545 5:0.027272727 6:0.045454545 
8192 1:0 2:3.2 3:5 4:0.045454545 5:0.036363636 6:0.045454545 
8192 1:6 2:7.4 3:9 4:0.066666667 5:0.14666667 6:0.26666667 
8192 1:5 2:4 3:8 4:0.26666667 5:0.18666667 6:0.33333333 
8192 1:2 2:6.2 3:9 4:0.2 5:0.16 6:0.26666667 
8192 1:7 2:4.8 3:7 4:0.13333333 5:0.16 6:0.26666667 
8192 1:9 2:5.4 3:9 4:0.13333333 5:0.08 6:0.13333333 
8192 1:8 2:6 3:8 4:0.13333333 5:0.10666667 6:0.26666667 
8192 1:0 2:3.8 3:7 4:0.2 5:0.16 6:0.33333333 
8192 1:6 2:5.6 3:9 4:0.13333333 5:0.12 6:0.33333333 
8192 1:7 2:6.4 3:8 4:0.2 5:0.093333333 6:0.26666667 
8192 1:6 2:5.6 3:7 4:0.066666667 5:0.093333333 6:0.26666667 
8192 1:9 2:4.2 3:9 4:0.066666667 5:0.08 6:0.13333333 
8192 1:6 2:5 3:9 4:0.066666667 5:0.08 6:0.13333333 
8192 1:5 2:3 3:6 4:0.066666667 5:0.08 6:0.13333333 
8192 1:6 2:4.6 3:8 4:0.066666667 5:0.093333333 6:0.2 
8192 1:6 2:5.8 3:8 4:0.2 5:0.13333333 6:0.2 
8192 1:4 2:5.4 3:9 4:0.13333333 5:0.08 6:0.13333333 
8192 1:8 2:4.6 3:8 4:0.2 5:0.14666667 6:0.26666667 
8192 1:0 2:5.4 3:8 4:0.066666667 5:0.10666667 6:0.2 
8192 1:5 2:5.2 3:9 4:0.064516129 5:0.096774194 6:0.11827957 
8192 1:6 2:5.2 3:7 4:0.15053763 5:0.14193548 6:0.20430108 
4331.833498792371 1:7 2:3.8 3:9 4:0.68421053 5:0.21052632 6:0.68421053 
8192 1:7 2:4.4 3:9 4:0.15789474 5:0.18947368 6:0.63157895 
8192 1:7 2:5 3:7 4:0.1 5:0.1 6:0.2 
8192 1:8 2:4.8 3:8 4:0.2 5:0.06 6:0.2 
8192 1:9 2:4 3:9 4:0.14285714 5:0.035714286 6:0.14285714 
8192 1:0 2:4 3:6 4:0.17857143 5:0.085714286 6:0.17857143 
8192 1:3 2:4.6 3:7 4:0.17857143 5:0.092857143 6:0.21428571 
8192 1:6 2:6.2 3:7 4:0.14285714 5:0.078571429 6:0.17857143 
1713.658148441349 1:6 2:3.6 3:6 4:0.25 5:0.071428571 6:0.25 
8192 1:9 2:6.6 3:9 4:0.035714286 5:0.057142857 6:0.21428571 
6070.492735166391 1:2 2:5.4 3:7 4:0.37777778 5:0.44444444 6:0.62222222 
2783.383190175392 1:5 2:1.4 3:5 4:0.31111111 5:0.084444444 6:0.31111111 
3142.922495836657 1:6 2:6.6 3:9 4:0.71111111 5:0.42222222 6:0.73333333 
8192 1:4 2:4.6 3:7 4:0.15555556 5:0.19555556 6:0.44444444 
8192 1:3 2:1.6 3:5 4:0.28888889 5:0.075555556 6:0.28888889 
8192 1:5 2:1.6 3:5 4:0.022222222 5:0.013333333 6:0.022222222 
4203.489568269487 1:4 2:6.4 3:7 4:0.64444444 5:0.38222222 6:0.64444444 
8192 1:4 2:2.4 3:4 4:0.28888889 5:0.071111111 6:0.28888889 
8192 1:7 2:4.2 3:7 4:0.6 5:0.36888889 6:0.6 
3704.523413598356 1:8 2:7.6 3:9 4:0.5 5:0.2 6:0.5 
8192 1:8 2:7.6 3:9 4:0.5 5:0.2 6:0.5 
8192 1:8 2:5.2 3:8 4:0.071428571 5:0.2 6:0.92857143 
2736.188538185512 1:4 2:6.6 3:9 4:0.14285714 5:0.22857143 6:0.85714286 
8192 1:0 2:4 3:9 4:0.071428571 5:0.22857143 6:0.92857143 
8192 1:0 2:3.2 3:7 4:0.25 5:0.05 6:0.25 
8192 1:0 2:2.4 3:8 4:0.25 5:0.1 6:0.25 
8192 1:0 2:0.2 3:1 4:0.25 5:0.05 6:0.25 
8192 1:2 2:2.2 3:6 4:0.25 5:0.05 6:0.25 
8192 1:2 2:1 3:2 4:0.25 5:0.1 6:0.25 
8192 1:6 2:6.6 3:8 4:0.090909091 5:0.26363636 6:0.63636364 
8192 1:9 2:6 3:9 4:0.14285714 5:0.042857143 6:0.14285714 
8192 1:6 2:2.6 3:6 4:0.14285714 5:0.042857143 6:0.14285714 
8192 1:8 2:6.2 3:8 4:0.14285714 5:0.028571429 6:0.14285714 
8192 1:8 2:6 3:8 4:0.14285714 5:0.042857143 6:0.14285714 
8192 1:3 2:3 3:5 4:0.071428571 5:0.042857143 6:0.14285714 
8192 1:9 2:3.6 3:9 4:0.14285714 5:0.071428571 6:0.14285714 
8192 1:5 2:4.4 3:9 4:0.14285714 5:0.22857143 6:0.92857143 
182.5674377566577 1:2 2:4.6 3:6 4:0.47619048 5:0.4952381 6:0.85714286 
8192 1:7 2:5.4 3:9 4:0.28571429 5:0.066666667 6:0.28571429 
8000.000704659571 1:4 2:4.2 3:7 4:0.28571429 5:0.25714286 6:1 
250.3704946624359 1:7 2:4.4 3:9 4:0.5 5:0.43333333 6:0.5 
8192 1:0 2:5.2 3:8 4:0.5 5:0.7 6:0.83333333 
3009.543342896643 1:4 2:3.6 3:7 4:0.83333333 5:0.43333333 6:0.83333333 
8192 1:3 2:5.2 3:8 4:0.0625 5:0.0125 6:0.0625 
8192 1:0 2:1.6 3:5 4:0.0625 5:0.0125 6:0.0625 
8192 1:3 2:2.4 3:5 4:0.076923077 5:0.030769231 6:0.076923077 
8192 1:7 2:4.8 3:9 4:0.27777778 5:0.16666667 6:0.27777778 
8192 1:6 2:7.4 3:8 4:0.11111111 5:0.066666667 6:0.11111111 
8192 1:7 2:8.2 3:9 4:0.16666667 5:0.077777778 6:0.16666667 
8192 1:7 2:7.6 3:9 4:0.16666667 5:0.18888889 6:0.27777778 
8192 1:8 2:7.4 3:8 4:0.11111111 5:0.088888889 6:0.11111111 
8192 1:8 2:7 3:8 4:0.11111111 5:0.066666667 6:0.11111111 
8192 1:6 2:5.8 3:8 4:0.11111111 5:0.13333333 6:0.27777778 
8192 1:7 2:7 3:8 4:0.11111111 5:0.066666667 6:0.11111111 
8192 1:9 2:8 3:9 4:0.16666667 5:0.077777778 6:0.16666667 
8192 1:5 2:5.6 3:7 4:0.125 5:0.066666667 6:0.125 
8192 1:3 2:5.8 3:8 4:0.083333333 5:0.23333333 6:0.83333333 
8192 1:4 2:4.6 3:7 4:0.16666667 5:0.125 6:0.25 
8192 1:7 2:5.6 3:7 4:0.041666667 5:0.083333333 6:0.16666667 
8192 1:0 2:3.6 3:6 4:0.041666667 5:0.1 6:0.25 
8192 1:2 2:0.6 3:2 4:0.041666667 5:0.0083333333 6:0.041666667 
8192 1:8 2:5.8 3:8 4:0.70503597 5:0.20143885 6:0.70503597 
8192 1:3 2:2.6 3:4 4:0.045454545 5:0.0090909091 6:0.045454545 
8192 1:3 2:2.2 3:3 4:0.028169014 5:0.022535211 6:0.042253521 
8192 1:4 2:3.6 3:4 4:0.028169014 5:0.028169014 6:0.042253521 
8192 1:3 2:3.8 3:5 4:0.014084507 5:0.022535211 6:0.042253521 
8192 1:7 2:4.2 3:9 4:0.028169014 5:0.028169014 6:0.042253521 
8192 1:9 2:3.2 3:9 4:0.042253521 5:0.030985915 6:0.042253521 
8192 1:8 2:6.2 3:9 4:0.6056338 5:0.1915493 6:0.6056338 
8192 1:4 2:5.8 3:9 4:0.056338028 5:0.016901408 6:0.056338028 
8192 1:3 2:3.8 3:5 4:0.042253521 5:0.028169014 6:0.042253521 
8192 1:0 2:0.6 3:2 4:0.014084507 5:0.011267606 6:0.028169014 
8192 1:9 2:6 3:9 4:0.23943662 5:0.1915493 6:0.6056338 
8192 1:9 2:4.2 3:9 4:0.042253521 5:0.025352113 6:0.042253521 
8192 1:4 2:3.6 3:4 4:0.014084507 5:0.025352113 6:0.042253521 
8192 1:0 2:3.6 3:9 4:0.014084507 5:0.025352113 6:0.042253521 
8192 1:9 2:5.2 3:9 4:0.12676056 5:0.03943662 6:0.12676056 
8192 1:0 2:1.2 3:3 4:0.042253521 5:0.025352113 6:0.042253521 
8192 1:0 2:2.4 3:9 4:0.042253521 5:0.028169014 6:0.042253521 
8192 1:9 2:5.4 3:9 4:0.14084507 5:0.056338028 6:0.14084507 
8192 1:2 2:3 3:8 4:0.042253521 5:0.022535211 6:0.042253521 
6697.163139863203 1:7 2:5 3:8 4:0.75 5:0.15 6:0.75 
1548.17412360728 1:8 2:4.4 3:8 4:0.75 5:0.5 6:1 
8192 1:9 2:4.8 3:9 4:0.61111111 5:0.41444444 6:0.62222222 
8192 1:7 2:4.6 3:9 4:0.13888889 5:0.23666667 6:0.61111111 
8192 1:5 2:2.6 3:5 4:0.032520325 5:0.024390244 6:0.048780488 
8192 1:8 2:7.4 3:9 4:0.55284553 5:0.17886179 6:0.55284553 
8192 1:4 2:3.6 3:5 4:0.048780488 5:0.03902439 6:0.06504065 
8192 1:5 2:4.8 3:6 4:0.06504065 5:0.037398374 6:0.06504065 
8192 1:5 2:3 3:5 4:0.040650407 5:0.042276423 6:0.06504065 
8192 1:4 2:3.4 3:9 4:0.056910569 5:0.073170732 6:0.19512195 
8192 1:0 2:2 3:4 4:0.040650407 5:0.029268293 6:0.056910569 
8192 1:0 2:2.2 3:5 4:0.024390244 5:0.034146341 6:0.048780488 
8192 1:6 2:4.8 3:7 4:0.058823529 5:0.18823529 6:0.82352941 
8192 1:2 2:1.8 3:7 4:0.17647059 5:0.035294118 6:0.17647059 
13.60791733162247 1:5 2:3.6 3:7 4:0.76470588 5:0.42352941 6:0.82352941 
2483.122205315452 1:7 2:5.6 3:7 4:0.058823529 5:0.32941176 6:0.82352941 
8192 1:0 2:2 3:4 4:0.058823529 5:0.058823529 6:0.17647059 
8192 1:1 2:1.6 3:4 4:0.11764706 5:0.10588235 6:0.17647059 
8192 1:1 2:3.4 3:9 4:0.17647059 5:0.14117647 6:0.23529412 
8192 1:2 2:1 3:3 4:0.11764706 5:0.070588235 6:0.17647059 
8192 1:0 2:1.8 3:7 4:0.058823529 5:0.11764706 6:0.23529412 
34.89595867871157 1:0 2:2.6 3:7 4:0.52941176 5:0.50588235 6:0.94117647 
8192 1:3 2:3.2 3:7 4:0.11764706 5:0.070588235 6:0.17647059 
8192 1:9 2:7.8 3:9 4:0.2 5:0.12 6:0.2 
8192 1:6 2:6.6 3:9 4:0.2 5:0.12 6:0.2 
8192 1:7 2:6 3:9 4:0.2 5:0.04 6:0.2 
8192 1:6 2:7.6 3:9 4:0.2 5:0.16 6:0.2 
8192 1:4 2:5 3:8 4:0.2 5:0.08 6:0.2 
8192 1:2 2:5.2 3:9 4:0.028571429 5:0.0057142857 6:0.028571429 
8192 1:3 2:3.6 3:8 4:0.057142857 5:0.10857143 6:0.37142857 
8192 1:6 2:7 3:9 4:0.085714286 5:0.12 6:0.37142857 
8192 1:1 2:2.8 3:8 4:0.052631579 5:0.036842105 6:0.052631579 
8192 1:6 2:6.6 3:9 4:0.10526316 5:0.21578947 6:0.78947368 
8192 1:7 2:6.8 3:9 4:0.078947368 5:0.2 6:0.78947368 
8192 1:1 2:5.8 3:9 4:0.18421053 5:0.084210526 6:0.18421053 
8192 1:5 2:1.2 3:5 4:0.026315789 5:0.031578947 6:0.052631579 
8192 1:7 2:5.2 3:9 4:0.026315789 5:0.010526316 6:0.026315789 
8192 1:9 2:4 3:9 4:0.026315789 5:0.0052631579 6:0.026315789 
8192 1:6 2:5.4 3:9 4:0.026315789 5:0.015789474 6:0.052631579 
8192 1:8 2:2.6 3:8 4:0.052631579 5:0.047368421 6:0.18421053 
8192 1:8 2:4 3:9 4:0.026315789 5:0.031578947 6:0.052631579 
8192 1:2 2:5 3:9 4:0.026315789 5:0.021052632 6:0.052631579 
8192 1:5 2:5.2 3:9 4:0.064516129 5:0.096774194 6:0.11827957 
8192 1:1 2:1 3:2 4:0.032258065 5:0.015053763 6:0.032258065 
8192 1:6 2:5.8 3:8 4:0.032258065 5:0.0086021505 6:0.032258065 
8192 1:0 2:0.4 3:1 4:0.16129032 5:0.15053763 6:0.23655914 
8192 1:6 2:5.2 3:7 4:0.15053763 5:0.14193548 6:0.20430108 
8192 1:0 2:0.2 3:1 4:0.096774194 5:0.10967742 6:0.17204301 
8192 1:0 2:0.4 3:1 4:0.075268817 5:0.12258065 6:0.20430108 
8192 1:4 2:4 3:7 4:0.23333333 5:0.12 6:0.23333333 
8192 1:7 2:3.2 3:7 4:0.23333333 5:0.093333333 6:0.23333333 
8192 1:0 2:1.8 3:6 4:0.0055555556 5:0.0033333333 6:0.0055555556 
8192 1:4 2:0.8 3:4 4:0.011111111 5:0.0077777778 6:0.011111111 
8192 1:0 2:2 3:6 4:0.0055555556 5:0.011111111 6:0.027777778 
8192 1:1 2:3 3:8 4:0.0055555556 5:0.0033333333 6:0.0055555556 
8192 1:9 2:6.4 3:9 4:0.022222222 5:0.078888889 6:0.31111111 
8192 1:5 2:4.8 3:7 4:0.0055555556 5:0.0044444444 6:0.0055555556 
8192 1:0 2:1.6 3:4 4:0.011111111 5:0.0066666667 6:0.011111111 
8192 1:3 2:3.2 3:8 4:0.0055555556 5:0.011111111 6:0.016666667 
8192 1:2 2:4 3:9 4:0.022222222 5:0.02 6:0.044444444 
8192 1:6 2:6.8 3:9 4:0.027777778 5:0.44111111 6:0.79444444 
8192 1:0 2:1.6 3:5 4:0.016666667 5:0.0088888889 6:0.016666667 
8192 1:0 2:1.8 3:5 4:0.011111111 5:0.01 6:0.016666667 
8192 1:9 2:5.6 3:9 4:0.016666667 5:0.022222222 6:0.044444444 
3508.039907527913 1:8 2:3 3:8 4:0.86111111 5:0.21111111 6:0.86111111 
8192 1:2 2:2.2 3:5 4:0.41176471 5:0.12941176 6:0.41176471 
8192 1:5 2:4.6 3:9 4:0.29411765 5:0.16470588 6:0.29411765 
8192 1:7 2:4.8 3:9 4:0.17647059 5:0.17647059 6:0.29411765 
3961.900928942505 1:2 2:5 3:8 4:0.47058824 5:0.54117647 6:0.76470588 
6978.315991550015 1:8 2:5.6 3:8 4:0.64705882 5:0.36470588 6:0.64705882 
8192 1:7 2:4 3:7 4:0.26315789 5:0.11052632 6:0.26315789 
8192 1:7 2:3.4 3:7 4:0.026315789 5:0.026315789 6:0.052631579 
8192 1:6 2:3.6 3:6 4:0.078947368 5:0.047368421 6:0.078947368 
8192 1:6 2:2.6 3:6 4:0.078947368 5:0.068421053 6:0.15789474 
8192 1:0 2:3.6 3:6 4:0.078947368 5:0.073684211 6:0.078947368 
8192 1:9 2:5.4 3:9 4:0.078947368 5:0.052631579 6:0.15789474 
8192 1:4 2:4 3:6 4:0.052631579 5:0.047368421 6:0.10526316 
8192 1:5 2:3.8 3:5 4:0.052631579 5:0.073684211 6:0.15789474 
8192 1:3 2:3.2 3:5 4:0.13157895 5:0.089473684 6:0.15789474 
8192 1:4 2:4 3:9 4:0.15789474 5:0.12631579 6:0.21052632 
8192 1:6 2:4.6 3:6 4:0.28947368 5:0.22105263 6:0.42105263 
8192 1:3 2:3.4 3:6 4:0.21052632 5:0.12105263 6:0.21052632 
8192 1:5 2:4.6 3:7 4:0.10526316 5:0.057894737 6:0.10526316 
8192 1:3 2:3.8 3:6 4:0.15789474 5:0.068421053 6:0.15789474 
8192 1:4 2:4.6 3:7 4:0.078947368 5:0.11578947 6:0.26315789 
8192 1:2 2:3.6 3:6 4:0.078947368 5:0.13684211 6:0.21052632 
8192 1:4 2:2.8 3:6 4:0.078947368 5:0.057894737 6:0.10526316 
8192 1:3 2:4.4 3:7 4:0.052631579 5:0.094736842 6:0.26315789 
8192 1:4 2:3.6 3:6 4:0.052631579 5:0.057894737 6:0.078947368 
8192 1:4 2:3.4 3:5 4:0.15789474 5:0.12631579 6:0.21052632 
8192 1:4 2:4.4 3:6 4:0.026315789 5:0.021052632 6:0.052631579 
8192 1:3 2:3.8 3:6 4:0.21052632 5:0.12105263 6:0.21052632 
8192 1:4 2:4.6 3:6 4:0.026315789 5:0.026315789 6:0.052631579 
8192 1:1 2:3 3:6 4:0.078947368 5:0.052631579 6:0.15789474 
8192 1:6 2:2.6 3:6 4:0.052631579 5:0.015789474 6:0.052631579 
8192 1:6 2:3.2 3:6 4:0.052631579 5:0.089473684 6:0.21052632 
8192 1:5 2:4.2 3:7 4:0.10526316 5:0.047368421 6:0.10526316 
8192 1:7 2:4 3:7 4:0.049180328 5:0.072131148 6:0.13114754 
8192 1:1 2:2.2 3:5 4:0.1147541 5:0.075409836 6:0.13114754 
8192 1:9 2:2.6 3:9 4:0.032786885 5:0.0098360656 6:0.032786885 
8192 1:0 2:2.8 3:7 4:0.1147541 5:0.24918033 6:0.50819672 
8192 1:3 2:2.2 3:4 4:0.27868852 5:0.27868852 6:0.67213115 
6782.944020639958 1:1 2:1.8 3:5 4:1 5:0.46666667 6:1 
8192 1:2 2:4 3:6 4:0.33333333 5:0.46666667 6:1 
8192 1:4 2:3 3:4 4:0.0066666667 5:0.0053333333 6:0.0066666667 
8192 1:8 2:4.2 3:8 4:0.14666667 5:0.044 6:0.14666667 
8192 1:5 2:2.4 3:5 4:0.02 5:0.0093333333 6:0.02 
8192 1:2 2:3.2 3:7 4:0.0066666667 5:0.018666667 6:0.046666667 
8192 1:3 2:5.8 3:9 4:0.0066666667 5:0.021333333 6:0.053333333 
8192 1:9 2:7 3:9 4:0.033333333 5:0.014666667 6:0.033333333 
8192 1:5 2:3.4 3:7 4:0.046666667 5:0.025333333 6:0.046666667 
8192 1:7 2:5.8 3:9 4:0.053333333 5:0.021333333 6:0.053333333 
8192 1:8 2:3.6 3:8 4:0.02 5:0.016 6:0.033333333 
8192 1:6 2:2.8 3:7 4:0.0066666667 5:0.012 6:0.013333333 
8192 1:3 2:2.2 3:5 4:0.0066666667 5:0.017333333 6:0.033333333 
8192 1:3 2:4.6 3:7 4:0.058823529 5:0.058823529 6:0.10294118 
8192 1:5 2:2.8 3:5 4:0.16176471 5:0.16176471 6:0.33823529 
8192 1:6 2:3.6 3:6 4:0.11764706 5:0.052941176 6:0.11764706 
8192 1:5 2:4.8 3:8 4:0.044117647 5:0.13823529 6:0.32352941 
8192 1:1 2:4.6 3:6 4:0.058823529 5:0.067647059 6:0.11764706 
8192 1:5 2:3.4 3:5 4:0.044117647 5:0.05 6:0.11764706 
8192 1:1 2:3.4 3:6 4:0.058823529 5:0.085294118 6:0.13235294 
8192 1:2 2:3.8 3:6 4:0.014705882 5:0.038235294 6:0.088235294 
8192 1:1 2:4 3:6 4:0.014705882 5:0.041176471 6:0.088235294 
8192 1:0 2:4 3:6 4:0.073529412 5:0.14705882 6:0.25 
8192 1:4 2:5 3:7 4:0.029411765 5:0.055882353 6:0.10294118 
8192 1:4 2:4.2 3:7 4:0.029411765 5:0.041176471 6:0.10294118 
8192 1:6 2:6 3:7 4:0.073529412 5:0.055882353 6:0.10294118 
8192 1:5 2:4.6 3:6 4:0.11764706 5:0.058823529 6:0.11764706 
8192 1:6 2:2.8 3:6 4:0.073529412 5:0.041176471 6:0.073529412 
3294.483463624435 1:6 2:4.6 3:6 4:0.29411765 5:0.28529412 6:0.38235294 
8192 1:3 2:3.6 3:6 4:0.058823529 5:0.061764706 6:0.10294118 
8192 1:6 2:4.4 3:7 4:0.23529412 5:0.23823529 6:0.33823529 
8192 1:4 2:3.6 3:6 4:0.044117647 5:0.047058824 6:0.11764706 
8192 1:2 2:3.6 3:5 4:0.029411765 5:0.064705882 6:0.17647059 
8192 1:9 2:5.6 3:9 4:0.10294118 5:0.058823529 6:0.10294118 
8192 1:5 2:4.2 3:9 4:0.073529412 5:0.082352941 6:0.14705882 
8192 1:6 2:3.4 3:6 4:0.014705882 5:0.064705882 6:0.14705882 
8192 1:3 2:3.6 3:7 4:0.029411765 5:0.044117647 6:0.073529412 
8192 1:0 2:3.8 3:6 4:0.14705882 5:0.094117647 6:0.14705882 
1961.58157028118 1:4 2:4.6 3:8 4:0.65625 5:0.44375 6:0.6875 
8192 1:0 2:3.2 3:8 4:0.140625 5:0.0875 6:0.21875 
8192 1:7 2:1.8 3:7 4:0.171875 5:0.046875 6:0.171875 
8192 1:4 2:2.4 3:5 4:0.25 5:0.059375 6:0.25 
3905.760893543978 1:3 2:5.8 3:7 4:0.640625 5:0.240625 6:0.640625 
5838.033809558195 1:8 2:3.6 3:8 4:0.6875 5:0.3125 6:0.6875 
8192 1:8 2:4 3:8 4:0.21875 5:0.109375 6:0.21875 
8192 1:3 2:4.2 3:6 4:0.03030303 5:0.012121212 6:0.03030303 
8192 1:1 2:1.8 3:6 4:0.33333333 5:0.16666667 6:0.5 
8192 1:4 2:2.6 3:4 4:0.16666667 5:0.2 6:0.33333333 
8192 1:1 2:1.4 3:3 4:0.16666667 5:0.2 6:0.66666667 
2189.371890386013 1:0 2:3 3:9 4:0.66666667 5:0.5 6:1 
8192 1:5 2:4.2 3:6 4:0.16666667 5:0.066666667 6:0.16666667 
8192 1:0 2:0.8 3:3 4:0.03030303 5:0.018181818 6:0.03030303 
8192 1:2 2:3 3:4 4:0.11764706 5:0.023529412 6:0.11764706 
8192 1:7 2:5.2 3:7 4:0.23529412 5:0.082352941 6:0.23529412 
8192 1:4 2:3.8 3:7 4:0.72727273 5:0.29090909 6:0.72727273 
7564.10861447735 1:8 2:4.6 3:8 4:0.66666667 5:0.19047619 6:0.66666667 
8192 1:1 2:1.4 3:4 4:0.032258065 5:0.021505376 6:0.032258065 
8192 1:0 2:2.8 3:6 4:0.021505376 5:0.010752688 6:0.021505376 
8192 1:6 2:6.4 3:9 4:0.16129032 5:0.12043011 6:0.16129032 
8192 1:9 2:6.6 3:9 4:0.12903226 5:0.15913978 6:0.21505376 
8192 1:4 2:7 3:9 4:0.13978495 5:0.13548387 6:0.16129032 
8192 1:7 2:4.8 3:7 4:0.16666667 5:0.13333333 6:0.16666667 
4805.805432075154 1:6 2:2 3:6 4:0.33333333 5:0.066666667 6:0.33333333 
8192 1:5 2:3.6 3:7 4:0.16666667 5:0.066666667 6:0.16666667 
8192 1:4 2:2.6 3:5 4:0.16666667 5:0.033333333 6:0.16666667 
8192 1:6 2:4.4 3:7 4:0.16666667 5:0.1 6:0.16666667 
8192 1:9 2:7.2 3:9 4:0.011111111 5:0.012222222 6:0.022222222 
8192 1:3 2:6 3:9 4:0.011111111 5:0.021111111 6:0.044444444 
8192 1:3 2:4 3:9 4:0.022222222 5:0.02 6:0.038888889 
8192 1:1 2:2.8 3:5 4:0.0055555556 5:0.0044444444 6:0.0055555556 
8192 1:3 2:2.8 3:5 4:0.011111111 5:0.017777778 6:0.033333333 
8192 1:0 2:2.8 3:5 4:0.0055555556 5:0.0044444444 6:0.0055555556 
8192 1:4 2:2.8 3:5 4:0.0055555556 5:0.0055555556 6:0.0055555556 
8192 1:4 2:4.2 3:9 4:0.19444444 5:0.21111111 6:0.86111111 
8192 1:0 2:0.6 3:3 4:0.11428571 5:0.22857143 6:0.6 
8192 1:0 2:1 3:5 4:0.028571429 5:0.017142857 6:0.028571429 
8192 1:1 2:3 3:5 4:0.058823529 5:0.058823529 6:0.17647059 
8192 1:5 2:5.6 3:7 4:0.083333333 5:0.11666667 6:0.16666667 
8192 1:7 2:3.4 3:8 4:0.083333333 5:0.066666667 6:0.16666667 
8192 1:3 2:6.4 3:9 4:0.25 5:0.16666667 6:0.33333333 
8192 1:2 2:5 3:8 4:0.16666667 5:0.13333333 6:0.41666667 
8192 1:6 2:3 3:6 4:0.025641026 5:0.020512821 6:0.051282051 
8192 1:0 2:4.2 3:9 4:0.08 5:0.128 6:0.44 
8192 1:3 2:5.2 3:7 4:0.2 5:0.24 6:0.8 
8192 1:5 2:5.6 3:7 4:0.2 5:0.28 6:0.8 
532.5283469753482 1:8 2:7.6 3:8 4:0.57575758 5:0.42424242 6:0.78787879 
8192 1:7 2:6.2 3:9 4:0.090909091 5:0.048484848 6:0.090909091 
8192 1:3 2:4.4 3:8 4:0.33333333 5:0.17575758 6:0.42424242 
8192 1:9 2:5.6 3:9 4:0.24242424 5:0.23636364 6:0.57575758 
7352.027051138028 1:9 2:7 3:9 4:0.60606061 5:0.16363636 6:0.60606061 
8192 1:0 2:5.4 3:9 4:0.090909091 5:0.054545455 6:0.090909091 
4385.167180039316 1:8 2:6 3:9 4:0.57575758 5:0.35151515 6:0.57575758 
8192 1:2 2:1.4 3:5 4:0.016666667 5:0.016666667 6:0.033333333 
8192 1:5 2:2 3:5 4:0.016666667 5:0.01 6:0.016666667 
8192 1:0 2:2.4 3:5 4:0.016666667 5:0.01 6:0.016666667 
8192 1:0 2:1.8 3:5 4:0.016666667 5:0.013333333 6:0.016666667 
8192 1:5 2:3.8 3:6 4:0.016666667 5:0.02 6:0.05 
8192 1:0 2:2 3:5 4:0.016666667 5:0.01 6:0.016666667 
8192 1:3 2:2.4 3:5 4:0.016666667 5:0.023333333 6:0.05 
8192 1:3 2:2.6 3:4 4:0.016666667 5:0.01 6:0.016666667 
8192 1:5 2:2 3:5 4:0.033333333 5:0.033333333 6:0.066666667 
8192 1:0 2:3.6 3:8 4:0.083333333 5:0.04 6:0.083333333 
8192 1:6 2:4.4 3:6 4:0.016666667 5:0.013333333 6:0.033333333 
8192 1:2 2:2.4 3:6 4:0.14285714 5:0.028571429 6:0.14285714 
8192 1:0 2:1.4 3:3 4:0.14285714 5:0.028571429 6:0.14285714 
633.0570418417944 1:0 2:3.6 3:7 4:0.42857143 5:0.28571429 6:0.42857143 
8192 1:7 2:3.6 3:7 4:0.28571429 5:0.22857143 6:0.42857143 
8192 1:4 2:3.6 3:7 4:0.14285714 5:0.17142857 6:0.42857143 
16.16950004726518 1:7 2:6.4 3:7 4:0.45454545 5:0.30909091 6:0.63636364 
8192 1:8 2:5 3:8 4:0.36363636 5:0.23636364 6:0.63636364 
8192 1:8 2:5.2 3:8 4:0.071428571 5:0.2 6:0.92857143 
8192 1:0 2:4 3:9 4:0.071428571 5:0.22857143 6:0.92857143 
8192 1:2 2:2.4 3:5 4:0.2 5:0.04 6:0.2 
8192 1:6 2:1.8 3:6 4:0.2 5:0.04 6:0.2 
8192 1:4 2:3.8 3:6 4:0.03125 5:0.00625 6:0.03125 
8192 1:0 2:2.2 3:8 4:0.03125 5:0.03125 6:0.125 
8192 1:7 2:2.6 3:7 4:0.03125 5:0.03125 6:0.125 
8192 1:6 2:3.6 3:7 4:0.125 5:0.025 6:0.125 
8192 1:5 2:3.6 3:6 4:0.03125 5:0.00625 6:0.03125 
8192 1:8 2:2.2 3:8 4:0.125 5:0.03125 6:0.125 
8192 1:6 2:4 3:8 4:0.03125 5:0.00625 6:0.03125 
8192 1:3 2:3.6 3:6 4:0.03125 5:0.01875 6:0.0625 
8192 1:0 2:2.8 3:7 4:0.06557377 5:0.1704918 6:0.63934426 
8192 1:0 2:1.6 3:8 4:0.27868852 5:0.095081967 6:0.27868852 
8192 1:0 2:1.8 3:7 4:0.032786885 5:0.013114754 6:0.032786885 
8192 1:0 2:1.4 3:7 4:0.016393443 5:0.039344262 6:0.081967213 
8192 1:0 2:2 3:6 4:0.29508197 5:0.11147541 6:0.29508197 
8192 1:0 2:2.4 3:7 4:0.032786885 5:0.013114754 6:0.032786885 
861.894282928577 1:0 2:3.4 3:8 4:0.44262295 5:0.17377049 6:0.44262295 
8192 1:0 2:1.6 3:8 4:0.14754098 5:0.085245902 6:0.27868852 
8192 1:5 2:4.2 3:7 4:0.1147541 5:0.22622951 6:0.52459016 
8192 1:7 2:3.8 3:7 4:0.081967213 5:0.27868852 6:0.52459016 
8192 1:0 2:1.8 3:8 4:0.049180328 5:0.055737705 6:0.16393443 
8192 1:1 2:2.6 3:7 4:0.032786885 5:0.016393443 6:0.032786885 
4486.089125249353 1:0 2:1.6 3:7 4:0.06557377 5:0.22622951 6:0.95081967 
8192 1:0 2:3.4 3:8 4:0.032786885 5:0.045901639 6:0.18032787 
8192 1:1 2:1.8 3:4 4:0.25 5:0.1 6:0.25 
8192 1:1 2:2 3:4 4:0.25 5:0.1 6:0.25 
8192 1:0 2:0.4 3:1 4:0.25 5:0.05 6:0.25 
8192 1:5 2:4 3:5 4:0.2 5:0.18 6:0.25 
4335.762982814313 1:0 2:5 3:8 4:0.3 5:0.22 6:0.3 
8192 1:5 2:5.4 3:9 4:0.2 5:0.09 6:0.2 
8192 1:5 2:4.2 3:7 4:0.1 5:0.12 6:0.25 
8192 1:9 2:6.6 3:9 4:0.15 5:0.08 6:0.2 
8192 1:3 2:5 3:7 4:0.15 5:0.12 6:0.25 
8192 1:3 2:3.2 3:6 4:0.3 5:0.27 6:0.35 
518.5368374782634 1:8 2:6.6 3:9 4:0.2 5:0.2 6:0.6 
8192 1:4 2:5.2 3:9 4:0.2 5:0.12 6:0.2 
8192 1:7 2:6.8 3:7 4:0.076923077 5:0.046153846 6:0.076923077 
8192 1:6 2:5 3:7 4:0.076923077 5:0.046153846 6:0.076923077 
8192 1:7 2:6 3:7 4:0.23076923 5:0.061538462 6:0.23076923 
8192 1:6 2:5.2 3:6 4:0.23076923 5:0.24615385 6:0.38461538 
87.70547516580012 1:3 2:6 3:8 4:0.38461538 5:0.16923077 6:0.38461538 
8192 1:9 2:5.6 3:9 4:0.15384615 5:0.076923077 6:0.15384615 
1796.393156902454 1:9 2:5.6 3:9 4:0.15384615 5:0.046153846 6:0.15384615 
8192 1:8 2:5.4 3:8 4:0.076923077 5:0.21538462 6:0.46153846 
8192 1:2 2:3.6 3:6 4:0.076923077 5:0.061538462 6:0.15384615 
8192 1:6 2:6.8 3:9 4:0.15384615 5:0.18461538 6:0.46153846 
8192 1:6 2:6 3:9 4:0.15384615 5:0.092307692 6:0.15384615 
8192 1:5 2:6.6 3:8 4:0.23076923 5:0.061538462 6:0.23076923 
8192 1:2 2:4 3:8 4:0.38461538 5:0.30769231 6:0.46153846 
8192 1:6 2:2.6 3:6 4:0.15384615 5:0.061538462 6:0.15384615 
8192 1:6 2:5.6 3:8 4:0.15384615 5:0.061538462 6:0.15384615 
8192 1:3 2:6.8 3:9 4:0.15384615 5:0.18461538 6:0.46153846 
8192 1:6 2:6 3:8 4:0.23076923 5:0.16923077 6:0.38461538 
8192 1:8 2:5.8 3:8 4:0.076923077 5:0.015384615 6:0.076923077 
8192 1:6 2:5.4 3:7 4:0.15384615 5:0.061538462 6:0.15384615 
8192 1:8 2:4.8 3:8 4:0.30769231 5:0.18461538 6:0.46153846 
8192 1:7 2:4.8 3:7 4:0.53846154 5:0.43076923 6:0.53846154 
3999.123111894364 1:2 2:4.8 3:7 4:0.46153846 5:0.36923077 6:0.53846154 
8192 1:7 2:6.6 3:7 4:0.076923077 5:0.092307692 6:0.23076923 
8192 1:1 2:5.2 3:7 4:0.11111111 5:0.066666667 6:0.11111111 
8192 1:7 2:4 3:7 4:0.11111111 5:0.066666667 6:0.11111111 
8192 1:8 2:6.8 3:9 4:0.029411765 5:0.29411765 6:0.58823529 
8192 1:9 2:4.8 3:9 4:0.23529412 5:0.22941176 6:0.55882353 
8192 1:4 2:7 3:9 4:0.11764706 5:0.21764706 6:0.58823529 
8192 1:7 2:7.6 3:9 4:0.029411765 5:0.18235294 6:0.61764706 
2209.550456423266 1:8 2:8.4 3:9 4:0.088235294 5:0.20588235 6:0.35294118 
4771.728312225584 1:1 2:6.2 3:9 4:0.26470588 5:0.35294118 6:0.61764706 
8192 1:7 2:6 3:9 4:0.058823529 5:0.15294118 6:0.35294118 
8192 1:8 2:6.8 3:8 4:0.088235294 5:0.058823529 6:0.088235294 
8192 1:3 2:3.6 3:8 4:0.058823529 5:0.064705882 6:0.088235294 
3726.640772544561 1:4 2:6.8 3:9 4:0.11764706 5:0.24705882 6:0.55882353 
8192 1:7 2:7.8 3:9 4:0.088235294 5:0.17058824 6:0.61764706 
8192 1:0 2:1.4 3:5 4:0.1 5:0.12 6:0.2 
8192 1:0 2:1 3:2 4:0.1 5:0.02 6:0.1 
8192 1:5 2:2.2 3:5 4:0.2 5:0.12 6:0.2 
8192 1:0 2:1 3:5 4:0.2 5:0.12 6:0.2 
8192 1:0 2:0.4 3:2 4:0.1 5:0.08 6:0.2 
8192 1:1 2:3 3:7 4:0.04 5:0.104 6:0.24 
8192 1:1 2:5.2 3:8 4:0.08 5:0.096 6:0.28 
8192 1:5 2:4.2 3:9 4:0.08 5:0.144 6:0.24 
8192 1:5 2:5 3:6 4:0.15384615 5:0.076923077 6:0.15384615 
8192 1:4 2:4.8 3:8 4:0.30769231 5:0.061538462 6:0.30769231 
8192 1:4 2:4 3:6 4:0.076923077 5:0.046153846 6:0.15384615 
8192 1:0 2:4.6 3:9 4:0.051282051 5:0.076923077 6:0.23076923 
8192 1:5 2:4.6 3:7 4:0.20512821 5:0.25128205 6:0.41025641 
8192 1:0 2:4.2 3:7 4:0.25641026 5:0.20512821 6:0.33333333 
8192 1:0 2:1.4 3:5 4:0.025641026 5:0.015384615 6:0.025641026 
8192 1:1 2:1.8 3:5 4:0.20512821 5:0.071794872 6:0.20512821 
8192 1:6 2:4.4 3:6 4:0.25641026 5:0.33333333 6:0.79487179 
8192 1:3 2:4.4 3:6 4:0.28205128 5:0.076923077 6:0.28205128 
8192 1:6 2:4.8 3:6 4:0.20512821 5:0.071794872 6:0.20512821 
8192 1:7 2:6.4 3:9 4:0.12820513 5:0.087179487 6:0.23076923 
8192 1:0 2:2.4 3:5 4:0.20512821 5:0.13333333 6:0.23076923 
8192 1:7 2:5.6 3:8 4:0.12820513 5:0.16923077 6:0.66666667 
8192 1:7 2:3.4 3:7 4:0.15384615 5:0.12820513 6:0.25641026 
8192 1:3 2:4.2 3:6 4:0.076923077 5:0.082051282 6:0.20512821 
8192 1:7 2:4.2 3:7 4:0.59322034 5:0.30508475 6:0.59322034 
8192 1:1 2:3.2 3:8 4:0.06779661 5:0.047457627 6:0.06779661 
30.95723156939295 1:7 2:6.8 3:9 4:0.55932203 5:0.34237288 6:0.55932203 
8192 1:9 2:6.6 3:9 4:0.20338983 5:0.13559322 6:0.38983051 
4432.418728531236 1:5 2:3.8 3:7 4:0.54237288 5:0.52881356 6:0.89830508 
8192 1:3 2:5.2 3:7 4:0.2 5:0.24 6:0.8 
8192 1:5 2:5.6 3:7 4:0.2 5:0.28 6:0.8 
8192 1:3 2:3.6 3:8 4:0.045454545 5:0.027272727 6:0.045454545 
8192 1:5 2:6.2 3:8 4:0.13636364 5:0.12727273 6:0.22727273 
8192 1:1 2:2.2 3:6 4:0.045454545 5:0.027272727 6:0.090909091 
8192 1:8 2:6.8 3:8 4:0.13636364 5:0.1 6:0.13636364 
8192 1:7 2:6.6 3:8 4:0.13636364 5:0.15454545 6:0.22727273 
8192 1:5 2:2.4 3:5 4:0.090909091 5:0.054545455 6:0.090909091 
8192 1:6 2:6.8 3:8 4:0.090909091 5:0.072727273 6:0.13636364 
8192 1:3 2:1.6 3:4 4:0.090909091 5:0.063636364 6:0.13636364 
8192 1:6 2:6.8 3:8 4:0.13636364 5:0.12727273 6:0.13636364 
8192 1:7 2:5.8 3:9 4:0.27272727 5:0.17272727 6:0.59090909 
8192 1:1 2:1.6 3:4 4:0.13636364 5:0.063636364 6:0.13636364 
8192 1:5 2:5.6 3:8 4:0.052631579 5:0.28421053 6:0.63157895 
8192 1:0 2:0 3:0 4:0.052631579 5:0.031578947 6:0.052631579 
8192 1:4 2:6.6 3:8 4:0.052631579 5:0.31578947 6:0.63157895 
8192 1:1 2:3.4 3:5 4:0.26315789 5:0.13684211 6:0.26315789 
8192 1:0 2:0.4 3:2 4:0.052631579 5:0.031578947 6:0.052631579 
8192 1:0 2:2.4 3:7 4:0.052631579 5:0.010526316 6:0.052631579 
8192 1:1 2:2.8 3:4 4:0.052631579 5:0.031578947 6:0.052631579 
8192 1:8 2:3.8 3:8 4:0.63157895 5:0.30526316 6:0.63157895 
8192 1:1 2:2.2 3:4 4:0.052631579 5:0.010526316 6:0.052631579 
8192 1:7 2:7.6 3:9 4:0.65384615 5:0.41153846 6:0.67307692 
8192 1:0 2:0.8 3:4 4:0.096153846 5:0.042307692 6:0.096153846 
8192 1:4 2:4 3:7 4:0.096153846 5:0.026923077 6:0.096153846 
8192 1:0 2:4 3:7 4:0.23076923 5:0.20384615 6:0.23076923 
8192 1:3 2:3.4 3:8 4:0.30769231 5:0.18076923 6:0.30769231 
8192 1:5 2:3.4 3:6 4:0.019230769 5:0.065384615 6:0.28846154 
8192 1:2 2:1.4 3:2 4:0.076923077 5:0.076923077 6:0.23076923 
8192 1:6 2:3.2 3:6 4:0.23076923 5:0.18076923 6:0.32692308 
8192 1:9 2:4.8 3:9 4:0.076923077 5:0.10384615 6:0.19230769 
8192 1:4 2:3.6 3:9 4:0.19230769 5:0.13076923 6:0.23076923 
8192 1:5 2:2.2 3:5 4:0.21153846 5:0.10769231 6:0.21153846 
8192 1:3 2:3.6 3:6 4:0.038461538 5:0.057692308 6:0.15384615 
8192 1:5 2:5.2 3:7 4:0.57692308 5:0.41538462 6:0.75 
8192 1:5 2:3 3:5 4:0.13461538 5:0.034615385 6:0.13461538 
8192 1:5 2:3 3:7 4:0.096153846 5:0.11923077 6:0.40384615 
4105.77605118387 1:4 2:5.6 3:9 4:0.78846154 5:0.51538462 6:0.80769231 
8192 1:5 2:4.8 3:8 4:0.16666667 5:0.033333333 6:0.16666667 
8192 1:6 2:5.4 3:8 4:0.21052632 5:0.10175439 6:0.21052632 
8192 1:1 2:3 3:7 4:0.15789474 5:0.16140351 6:0.28070175 
8192 1:6 2:1.4 3:6 4:0.052631579 5:0.021052632 6:0.052631579 
8192 1:4 2:2.4 3:5 4:0.12280702 5:0.042105263 6:0.12280702 
8192 1:2 2:2.6 3:4 4:0.10526316 5:0.1122807 6:0.29824561 
8192 1:1 2:2 3:4 4:0.14035088 5:0.042105263 6:0.14035088 
8192 1:4 2:3 3:6 4:0.087719298 5:0.042105263 6:0.087719298 
8192 1:2 2:1.2 3:2 4:0.29824561 5:0.1122807 6:0.29824561 
8192 1:0 2:3 3:8 4:0.25 5:0.15 6:0.45 
8192 1:0 2:2.2 3:9 4:0.05 5:0.09 6:0.25 
3682.753334842482 1:0 2:3.4 3:7 4:0.5 5:0.5 6:0.5 
8192 1:0 2:0.2 3:1 4:0.05 5:0.02 6:0.05 
8192 1:4 2:3.6 3:8 4:0.2 5:0.11 6:0.35 
8192 1:2 2:4 3:9 4:0.1 5:0.13 6:0.3 
8192 1:0 2:3.6 3:9 4:0.2 5:0.16 6:0.5 
3975.37746016308 1:3 2:1 3:3 4:0.4 5:0.22 6:0.4 
8192 1:2 2:2.6 3:8 4:0.2 5:0.256 6:0.52 
8192 1:5 2:4 3:6 4:0.88 5:0.528 6:0.88 
4390.255631007858 1:7 2:4.6 3:8 4:0.24 5:0.264 6:0.8 
2869.101944312165 1:6 2:3.4 3:6 4:0.88 5:0.536 6:0.88 
8192 1:2 2:4.4 3:6 4:0.08 5:0.208 6:0.56 
8192 1:5 2:5.6 3:8 4:0.04 5:0.288 6:0.8 
8192 1:4 2:1.8 3:4 4:0.16 5:0.168 6:0.2 
8192 1:0 2:5 3:9 4:0.045454545 5:0.14545455 6:0.63636364 
8192 1:3 2:5 3:9 4:0.045454545 5:0.14545455 6:0.63636364 
8192 1:7 2:5.4 3:8 4:0.045454545 5:0.018181818 6:0.045454545 
8192 1:8 2:5 3:8 4:0.045454545 5:0.0090909091 6:0.045454545 
8192 1:0 2:2 3:6 4:0.090909091 5:0.027272727 6:0.090909091 
8192 1:6 2:4.8 3:9 4:0.045454545 5:0.018181818 6:0.045454545 
8192 1:9 2:6.4 3:9 4:0.14285714 5:0.042857143 6:0.14285714 
8192 1:6 2:3.4 3:6 4:0.14285714 5:0.042857143 6:0.14285714 
8192 1:8 2:3.2 3:8 4:0.14285714 5:0.028571429 6:0.14285714 
8192 1:9 2:5.2 3:9 4:0.14285714 5:0.071428571 6:0.14285714 
8192 1:8 2:6.2 3:8 4:0.14285714 5:0.028571429 6:0.14285714 
8192 1:8 2:6 3:8 4:0.14285714 5:0.042857143 6:0.14285714 
8192 1:3 2:3.6 3:5 4:0.071428571 5:0.042857143 6:0.14285714 
8192 1:7 2:6.4 3:9 4:0.10526316 5:0.052631579 6:0.10526316 
8192 1:9 2:6.2 3:9 4:0.10526316 5:0.052631579 6:0.10526316 
8192 1:7 2:4.4 3:7 4:0.10526316 5:0.052631579 6:0.10526316 
8192 1:7 2:5.2 3:9 4:0.10526316 5:0.073684211 6:0.10526316 
8192 1:9 2:6.4 3:9 4:0.10526316 5:0.052631579 6:0.10526316 
8192 1:6 2:4.4 3:6 4:0.10526316 5:0.021052632 6:0.10526316 
8192 1:9 2:7.6 3:9 4:0.10526316 5:0.073684211 6:0.26315789 
1615.973564771652 1:7 2:7.2 3:8 4:0.10526316 5:0.13684211 6:0.57894737 
8192 1:9 2:7 3:9 4:0.10526316 5:0.021052632 6:0.10526316 
8192 1:9 2:7.4 3:9 4:0.15789474 5:0.031578947 6:0.15789474 
8192 1:7 2:5 3:9 4:0.083333333 5:0.075 6:0.10416667 
8192 1:4 2:5.4 3:8 4:0.020833333 5:0.21666667 6:0.72916667 
6850.051235016855 1:2 2:3.2 3:7 4:0.083333333 5:0.2625 6:0.77083333 
8192 1:3 2:5.6 3:9 4:0.020833333 5:0.16666667 6:0.45833333 
8192 1:7 2:4.6 3:9 4:0.020833333 5:0.054166667 6:0.1875 
8192 1:4 2:2.2 3:4 4:0.041666667 5:0.0375 6:0.041666667 
8192 1:3 2:3.8 3:9 4:0.041666667 5:0.054166667 6:0.10416667 
8192 1:1 2:3.8 3:8 4:0.041666667 5:0.054166667 6:0.125 
8192 1:0 2:2.6 3:8 4:0.041666667 5:0.075 6:0.25 
8192 1:3 2:3.6 3:9 4:0.083333333 5:0.1375 6:0.45833333 
8192 1:6 2:4.4 3:8 4:0.020833333 5:0.041666667 6:0.083333333 
8192 1:8 2:4.8 3:8 4:0.083333333 5:0.054166667 6:0.10416667 
2303.666993738394 1:6 2:3.8 3:7 4:0.77083333 5:0.25833333 6:0.77083333 
8192 1:7 2:4.6 3:8 4:0.6 5:0.37777778 6:0.6 
8192 1:0 2:1.2 3:4 4:0.11111111 5:0.066666667 6:0.2 
8192 1:3 2:2.6 3:4 4:0.31111111 5:0.08 6:0.31111111 
8192 1:5 2:3.2 3:5 4:0.088888889 5:0.088888889 6:0.24444444 
8192 1:0 2:3 3:5 4:0.044444444 5:0.044444444 6:0.088888889 
8192 1:2 2:1.6 3:3 4:0.022222222 5:0.022222222 6:0.044444444 
8192 1:8 2:4.8 3:8 4:0.2 5:0.053333333 6:0.2 
8192 1:6 2:6.6 3:8 4:0.64444444 5:0.38222222 6:0.64444444 
8192 1:0 2:5.4 3:9 4:0.044444444 5:0.27111111 6:0.71111111 
8192 1:7 2:7.4 3:9 4:0.73333333 5:0.41777778 6:0.73333333 
8192 1:7 2:6 3:8 4:0.13888889 5:0.094444444 6:0.16666667 
8192 1:6 2:5.2 3:9 4:0.16666667 5:0.1 6:0.16666667 
8192 1:7 2:4.4 3:8 4:0.16666667 5:0.13333333 6:0.16666667 
8192 1:1 2:4.4 3:8 4:0.16666667 5:0.16666667 6:0.16666667 
8192 1:0 2:6 3:9 4:0.16666667 5:0.36666667 6:1 
8192 1:7 2:6.6 3:8 4:0.16666667 5:0.26666667 6:0.83333333 
8192 1:8 2:6.8 3:8 4:0.16666667 5:0.3 6:0.83333333 
8192 1:2 2:4 3:7 4:0.010989011 5:0.0076923077 6:0.010989011 
8192 1:0 2:1 3:3 4:0.0054945055 5:0.0054945055 6:0.010989011 
8192 1:0 2:4.6 3:9 4:0.054945055 5:0.17142857 6:0.69230769 
8192 1:8 2:7.8 3:9 4:0.043956044 5:0.45934066 6:0.78571429 
8192 1:7 2:5.2 3:8 4:0.010989011 5:0.09010989 6:0.39010989 
8192 1:2 2:2.8 3:7 4:0.0054945055 5:0.0032967033 6:0.0054945055 
8192 1:2 2:3.6 3:7 4:0.016483516 5:0.085714286 6:0.39010989 
8192 1:2 2:3 3:7 4:0.010989011 5:0.010989011 6:0.016483516 
8192 1:6 2:6 3:8 4:0.027472527 5:0.3010989 6:0.69230769 
8192 1:4 2:3 3:4 4:0.0054945055 5:0.0054945055 6:0.010989011 
8192 1:2 2:4 3:8 4:0.027777778 5:0.072222222 6:0.11111111 
8192 1:7 2:4.4 3:7 4:0.16666667 5:0.10555556 6:0.19444444 
8192 1:7 2:3.4 3:7 4:0.027777778 5:0.022222222 6:0.083333333 
8192 1:7 2:3.6 3:7 4:0.19444444 5:0.10555556 6:0.19444444 
8192 1:2 2:2.4 3:4 4:0.11111111 5:0.072222222 6:0.13888889 
8192 1:6 2:4.6 3:8 4:0.027777778 5:0.066666667 6:0.19444444 
8192 1:4 2:5.8 3:8 4:0.016666667 5:0.01 6:0.033333333 
8192 1:1 2:2.8 3:5 4:0.016666667 5:0.01 6:0.033333333 
8192 1:7 2:4.8 3:8 4:0.033333333 5:0.01 6:0.033333333 
8192 1:1 2:1.6 3:6 4:0.16666667 5:0.073333333 6:0.16666667 
8192 1:7 2:4.6 3:7 4:0.016666667 5:0.01 6:0.033333333 
8192 1:1 2:1.8 3:6 4:0.083333333 5:0.063333333 6:0.16666667 
8192 1:1 2:2.8 3:5 4:0.033333333 5:0.01 6:0.033333333 
8192 1:9 2:5.6 3:9 4:0.016666667 5:0.0033333333 6:0.016666667 
8192 1:9 2:7.6 3:9 4:0.5 5:0.15263158 6:0.5 
8192 1:5 2:5.2 3:7 4:0.52941176 5:0.4 6:0.64705882 
8192 1:4 2:3 3:9 4:0.13793103 5:0.24137931 6:0.4137931 
8192 1:4 2:3.8 3:8 4:0.37931034 5:0.22758621 6:0.75862069 
8192 1:7 2:4.2 3:7 4:0.65517241 5:0.39310345 6:0.65517241 
2243.938647112931 1:6 2:5.4 3:7 4:0.65517241 5:0.42758621 6:0.65517241 
8192 1:4 2:5.8 3:7 4:0.65517241 5:0.44137931 6:0.65517241 
8192 1:1 2:5.6 3:9 4:0.20689655 5:0.19310345 6:0.4137931 
8192 1:5 2:2.2 3:5 4:0.083333333 5:0.033333333 6:0.083333333 
8192 1:4 2:3.6 3:5 4:0.083333333 5:0.05 6:0.083333333 
8192 1:2 2:3 3:5 4:0.083333333 5:0.05 6:0.083333333 
8192 1:6 2:3.8 3:6 4:0.083333333 5:0.05 6:0.083333333 
8192 1:8 2:3.2 3:8 4:0.083333333 5:0.016666667 6:0.083333333 
8192 1:8 2:6 3:8 4:0.75 5:0.17 6:0.75 
8192 1:4 2:2.8 3:4 4:0.023255814 5:0.03255814 6:0.046511628 
8192 1:0 2:0.4 3:1 4:0.093023256 5:0.051162791 6:0.093023256 
8192 1:9 2:3.6 3:9 4:0.13953488 5:0.055813953 6:0.13953488 
8192 1:9 2:3 3:9 4:0.13953488 5:0.051162791 6:0.13953488 
8192 1:9 2:3.6 3:9 4:0.069767442 5:0.018604651 6:0.069767442 
8192 1:2 2:1.6 3:4 4:0.023255814 5:0.013953488 6:0.023255814 
8192 1:4 2:3.6 3:9 4:0.069767442 5:0.055813953 6:0.13953488 
8192 1:0 2:0.6 3:2 4:0.023255814 5:0.013953488 6:0.023255814 
8192 1:2 2:3.2 3:9 4:0.046511628 5:0.055813953 6:0.13953488 
8192 1:5 2:3.8 3:6 4:0.023255814 5:0.0093023256 6:0.023255814 
8192 1:0 2:1.4 3:2 4:0.023255814 5:0.023255814 6:0.046511628 
8192 1:6 2:3.4 3:6 4:0.093023256 5:0.037209302 6:0.093023256 
8192 1:1 2:1 3:2 4:0.046511628 5:0.027906977 6:0.046511628 
8192 1:4 2:4.8 3:7 4:0.033333333 5:0.013333333 6:0.033333333 
8192 1:0 2:3 3:7 4:0.033333333 5:0.04 6:0.13333333 
8192 1:7 2:5.8 3:7 4:0.033333333 5:0.0066666667 6:0.033333333 
8192 1:1 2:1 3:2 4:0.033333333 5:0.0066666667 6:0.033333333 
8192 1:5 2:1.6 3:5 4:0.13333333 5:0.04 6:0.13333333 
8192 1:2 2:2 3:6 4:0.033333333 5:0.02 6:0.033333333 
8192 1:0 2:0.8 3:2 4:0.033333333 5:0.02 6:0.033333333 
8192 1:5 2:3 3:6 4:0.033333333 5:0.013333333 6:0.033333333 
4183.46557623169 1:5 2:4.6 3:7 4:0.2 5:0.29 6:0.65 
5909.820367206423 1:5 2:5.6 3:9 4:0.05 5:0.35 6:0.85 
8192 1:4 2:2.8 3:4 4:0.05 5:0.03 6:0.05 
8192 1:5 2:2.6 3:5 4:0.13043478 5:0.052173913 6:0.13043478 
8192 1:9 2:6.4 3:9 4:0.2173913 5:0.28695652 6:0.7826087 
8192 1:3 2:2.4 3:4 4:0.30434783 5:0.12173913 6:0.30434783 
1861.949000087869 1:3 2:5.2 3:7 4:0.56521739 5:0.46956522 6:0.91304348 
8192 1:1 2:2.4 3:5 4:0.34782609 5:0.13043478 6:0.34782609 
8192 1:5 2:4.2 3:7 4:0.82608696 5:0.37391304 6:0.82608696 
8192 1:7 2:5 3:7 4:0.13043478 5:0.052173913 6:0.13043478 
8192 1:0 2:1 3:3 4:0.13043478 5:0.2173913 6:0.43478261 
8192 1:0 2:2 3:3 4:0.43478261 5:0.26956522 6:0.43478261 
8192 1:8 2:4.8 3:8 4:0.47826087 5:0.31304348 6:0.7826087 
342.7115399646577 1:7 2:7.8 3:9 4:0.625 5:0.725 6:0.75 
1799.146410522595 1:0 2:4.4 3:9 4:0.25 5:0.475 6:0.875 
8192 1:1 2:3.8 3:6 4:0.125 5:0.25 6:0.75 
8192 1:9 2:8.6 3:9 4:0.125 5:0.475 6:0.75 
8192 1:5 2:5 3:7 4:0.25 5:0.125 6:0.375 
8192 1:8 2:4.8 3:8 4:0.125 5:0.45 6:0.75 
8192 1:5 2:2.8 3:5 4:0.28571429 5:0.057142857 6:0.28571429 
8192 1:9 2:7.2 3:9 4:0.57142857 5:0.21428571 6:0.57142857 
8192 1:6 2:5.2 3:7 4:0.18181818 5:0.054545455 6:0.18181818 
8192 1:1 2:2 3:4 4:0.090909091 5:0.054545455 6:0.090909091 
8192 1:2 2:1.6 3:4 4:0.090909091 5:0.090909091 6:0.090909091 
8192 1:2 2:2.2 3:4 4:0.090909091 5:0.072727273 6:0.090909091 
8192 1:4 2:1.8 3:4 4:0.090909091 5:0.090909091 6:0.090909091 
8192 1:1 2:1.2 3:5 4:0.6 5:0.14 6:0.6 
8192 1:6 2:3.6 3:6 4:0.035714286 5:0.071428571 6:0.17857143 
8192 1:5 2:5.6 3:8 4:0.071428571 5:0.24285714 6:0.71428571 
8192 1:7 2:5 3:7 4:0.035714286 5:0.071428571 6:0.17857143 
8192 1:2 2:3.6 3:7 4:0.035714286 5:0.11428571 6:0.46428571 
8192 1:5 2:5.4 3:8 4:0.071428571 5:0.19285714 6:0.46428571 
8192 1:2 2:5.2 3:8 4:0.071428571 5:0.21428571 6:0.75 
8192 1:5 2:5 3:8 4:0.17857143 5:0.35714286 6:0.75 
8192 1:7 2:5.2 3:8 4:0.020408163 5:0.1755102 6:0.7755102 
8192 1:7 2:4.6 3:7 4:0.36734694 5:0.25306122 6:0.81632653 
8192 1:2 2:4.4 3:9 4:0.040816327 5:0.16326531 6:0.51020408 
8192 1:5 2:6.6 3:8 4:0.020408163 5:0.2244898 6:0.7755102 
8192 1:2 2:4.2 3:8 4:0.26717557 5:0.27328244 6:0.3740458 
8192 1:4 2:3.8 3:6 4:0.14503817 5:0.099236641 6:0.16793893 
8192 1:8 2:7.2 3:8 4:0.55725191 5:0.35114504 6:0.5648855 
8192 1:7 2:7.4 3:8 4:0.5648855 5:0.40610687 6:0.5648855 
8192 1:5 2:4.8 3:7 4:0.53435115 5:0.36946565 6:0.70229008 
8192 1:8 2:5.8 3:8 4:0.12977099 5:0.2259542 6:0.50381679 
8192 1:3 2:3.6 3:4 4:0.053435115 5:0.1480916 6:0.48091603 
8192 1:7 2:6.4 3:8 4:0.5648855 5:0.43664122 6:0.5648855 
8192 1:5 2:3 3:8 4:0.3740458 5:0.36335878 6:0.50381679 
8192 1:2 2:4.6 3:7 4:0.46564885 5:0.43053435 6:0.52671756 
8192 1:3 2:2.4 3:5 4:0.030534351 5:0.13587786 6:0.50381679 
8192 1:4 2:3 3:4 4:0.030534351 5:0.051908397 6:0.16793893 
8192 1:7 2:6.4 3:9 4:0.6 5:0.28 6:0.6 
8192 1:9 2:5.4 3:9 4:0.78461538 5:0.18 6:0.78461538 
1513.256120825381 1:7 2:5.4 3:7 4:0.65384615 5:0.37692308 6:0.65384615 
8192 1:5 2:4.6 3:6 4:0.11363636 5:0.14090909 6:0.56818182 
8192 1:0 2:1 3:4 4:0.045454545 5:0.022727273 6:0.045454545 
5530.941270498689 1:6 2:5.4 3:7 4:0.022727273 5:0.35909091 6:0.63636364 
8192 1:4 2:4 3:7 4:0.022727273 5:0.063636364 6:0.27272727 
8192 1:1 2:0.2 3:1 4:0.045454545 5:0.027272727 6:0.045454545 
8192 1:0 2:1 3:3 4:0.022727273 5:0.045454545 6:0.090909091 
1168.781722384667 1:4 2:5.2 3:6 4:0.56818182 5:0.23181818 6:0.56818182 
8192 1:2 2:2.8 3:6 4:0.068181818 5:0.11818182 6:0.29545455 
8192 1:7 2:6.8 3:7 4:0.076923077 5:0.046153846 6:0.076923077 
8192 1:6 2:5 3:7 4:0.076923077 5:0.046153846 6:0.076923077 
8192 1:7 2:6 3:7 4:0.23076923 5:0.061538462 6:0.23076923 
8192 1:6 2:5.2 3:6 4:0.23076923 5:0.24615385 6:0.38461538 
6854.674821809571 1:3 2:6 3:8 4:0.38461538 5:0.16923077 6:0.38461538 
8192 1:9 2:5.6 3:9 4:0.15384615 5:0.076923077 6:0.15384615 
8192 1:9 2:5.6 3:9 4:0.15384615 5:0.046153846 6:0.15384615 
8192 1:8 2:5.4 3:8 4:0.076923077 5:0.21538462 6:0.46153846 
8192 1:2 2:3.6 3:6 4:0.076923077 5:0.061538462 6:0.15384615 
8192 1:6 2:6.8 3:9 4:0.15384615 5:0.18461538 6:0.46153846 
8192 1:6 2:6 3:9 4:0.15384615 5:0.092307692 6:0.15384615 
8192 1:5 2:6.6 3:8 4:0.23076923 5:0.061538462 6:0.23076923 
8192 1:5 2:6 3:9 4:0.076923077 5:0.076923077 6:0.15384615 
8192 1:2 2:4 3:8 4:0.38461538 5:0.30769231 6:0.46153846 
8192 1:6 2:2.6 3:6 4:0.15384615 5:0.061538462 6:0.15384615 
8192 1:6 2:5.6 3:8 4:0.15384615 5:0.061538462 6:0.15384615 
8192 1:3 2:6.8 3:9 4:0.15384615 5:0.18461538 6:0.46153846 
8192 1:8 2:5.8 3:8 4:0.076923077 5:0.015384615 6:0.076923077 
8192 1:6 2:5.4 3:7 4:0.15384615 5:0.061538462 6:0.15384615 
8192 1:8 2:4.8 3:8 4:0.30769231 5:0.18461538 6:0.46153846 
8192 1:7 2:4.8 3:7 4:0.53846154 5:0.43076923 6:0.53846154 
8191.700911222956 1:2 2:4.8 3:7 4:0.46153846 5:0.36923077 6:0.53846154 
8192 1:7 2:6.6 3:7 4:0.076923077 5:0.092307692 6:0.23076923 
8192 1:0 2:2.4 3:4 4:0.0055248619 5:0.0022099448 6:0.0055248619 
8192 1:2 2:3 3:6 4:0.0055248619 5:0.0044198895 6:0.0055248619 
8192 1:8 2:6.2 3:9 4:0.011049724 5:0.022099448 6:0.049723757 
8192 1:1 2:2.8 3:4 4:0.0055248619 5:0.011049724 6:0.022099448 
8192 1:9 2:7 3:9 4:0.033149171 5:0.029834254 6:0.049723757 
8192 1:6 2:6 3:9 4:0.011049724 5:0.016574586 6:0.033149171 
8192 1:4 2:3.4 3:6 4:0.022099448 5:0.011049724 6:0.022099448 
8192 1:9 2:6.2 3:9 4:0.0055248619 5:0.0077348066 6:0.016574586 
8192 1:3 2:4.4 3:8 4:0.0055248619 5:0.0033149171 6:0.0055248619 
8192 1:5 2:7.6 3:9 4:0.049723757 5:0.048618785 6:0.10497238 
8192 1:3 2:4.4 3:8 4:0.0055248619 5:0.011049724 6:0.022099448 
8192 1:1 2:1.2 3:4 4:0.0055248619 5:0.0044198895 6:0.011049724 
8192 1:3 2:2.2 3:4 4:0.011049724 5:0.012154696 6:0.022099448 
8192 1:6 2:6.2 3:9 4:0.011049724 5:0.0099447514 6:0.016574586 
8192 1:4 2:2.2 3:6 4:0.011049724 5:0.0033149171 6:0.011049724 
8192 1:6 2:4.2 3:8 4:0.0055248619 5:0.0044198895 6:0.0055248619 
8192 1:3 2:2.2 3:4 4:0.011049724 5:0.008839779 6:0.011049724 
8192 1:4 2:7 3:9 4:0.011049724 5:0.0077348066 6:0.016574586 
8192 1:1 2:6 3:9 4:0.0055248619 5:0.0044198895 6:0.011049724 
8192 1:0 2:2.2 3:3 4:0.027027027 5:0.043243243 6:0.081081081 
8192 1:5 2:3.6 3:5 4:0.10810811 5:0.22702703 6:0.45945946 
8192 1:3 2:5.2 3:7 4:0.054054054 5:0.12972973 6:0.43243243 
8192 1:1 2:2.6 3:6 4:0.054054054 5:0.10810811 6:0.2972973 
8192 1:5 2:4 3:9 4:0.10810811 5:0.11891892 6:0.35135135 
8192 1:3 2:5.6 3:9 4:0.054054054 5:0.16216216 6:0.48648649 
8192 1:3 2:4.6 3:9 4:0.35135135 5:0.19459459 6:0.37837838 
8192 1:0 2:3.2 3:5 4:0.027027027 5:0.064864865 6:0.21621622 
8192 1:0 2:1.8 3:6 4:0.054054054 5:0.097297297 6:0.27027027 
8192 1:5 2:3.8 3:7 4:0.081081081 5:0.13513514 6:0.45945946 
8192 1:0 2:3.6 3:7 4:0.081081081 5:0.22162162 6:0.45945946 
8192 1:2 2:2.8 3:4 4:0.027027027 5:0.010810811 6:0.027027027 
8192 1:0 2:2.2 3:6 4:0.081081081 5:0.12432432 6:0.27027027 
8192 1:0 2:2.8 3:5 4:0.027027027 5:0.048648649 6:0.13513514 
8192 1:3 2:2.4 3:3 4:0.054054054 5:0.07027027 6:0.13513514 
8192 1:0 2:1.4 3:6 4:0.027027027 5:0.010810811 6:0.027027027 
8192 1:3 2:2.2 3:3 4:0.054054054 5:0.07027027 6:0.13513514 
8192 1:2 2:3.8 3:8 4:0.054054054 5:0.17297297 6:0.56756757 
8192 1:2 2:2.6 3:5 4:0.10810811 5:0.14054054 6:0.43243243 
3477.087671440393 1:4 2:4.6 3:6 4:0.10810811 5:0.21081081 6:0.45945946 
8192 1:9 2:4.2 3:9 4:0.081081081 5:0.3027027 6:0.59459459 
8192 1:5 2:4.2 3:8 4:0.21621622 5:0.26486486 6:0.56756757 
8192 1:5 2:4.8 3:7 4:0.071428571 5:0.057142857 6:0.14285714 
8192 1:7 2:5.2 3:8 4:0.071428571 5:0.042857143 6:0.14285714 
8192 1:8 2:7 3:8 4:0.071428571 5:0.2 6:0.92857143 
8192 1:4 2:6.4 3:9 4:0.071428571 5:0.21428571 6:0.92857143 
8192 1:5 2:5 3:9 4:0.14285714 5:0.22857143 6:0.92857143 
8192 1:0 2:5.2 3:9 4:0.071428571 5:0.21428571 6:0.85714286 
8192 1:8 2:6.8 3:9 4:0.071428571 5:0.042857143 6:0.14285714 
8192 1:5 2:4.4 3:5 4:0.071428571 5:0.042857143 6:0.14285714 
8192 1:6 2:6.2 3:9 4:0.12903226 5:0.16774194 6:0.41935484 
8192 1:5 2:7 3:9 4:0.12903226 5:0.21935484 6:0.61290323 
8192 1:2 2:2.6 3:6 4:0.032258065 5:0.18709677 6:0.4516129 
8192 1:7 2:5.6 3:7 4:0.064516129 5:0.24516129 6:0.51612903 
8192 1:5 2:3.4 3:6 4:0.064516129 5:0.11612903 6:0.4516129 
8192 1:2 2:5.4 3:9 4:0.032258065 5:0.23870968 6:0.38709677 
8192 1:2 2:5 3:7 4:0.096774194 5:0.21290323 6:0.67741935 
8192 1:1 2:5.6 3:7 4:0.064516129 5:0.15483871 6:0.51612903 
8192 1:8 2:6.6 3:9 4:0.096774194 5:0.27741935 6:0.77419355 
8192 1:7 2:6 3:9 4:0.032258065 5:0.18709677 6:0.64516129 
8192 1:4 2:4.8 3:9 4:0.095238095 5:0.09047619 6:0.19047619 
8192 1:0 2:5.2 3:8 4:0.023809524 5:0.023809524 6:0.047619048 
8192 1:9 2:6.4 3:9 4:0.071428571 5:0.014285714 6:0.071428571 
8192 1:9 2:6.8 3:9 4:0.071428571 5:0.019047619 6:0.071428571 
8192 1:5 2:4.6 3:9 4:0.023809524 5:0.0047619048 6:0.023809524 
8192 1:0 2:2.6 3:8 4:0.047619048 5:0.019047619 6:0.047619048 
8192 1:3 2:5.8 3:9 4:0.047619048 5:0.042857143 6:0.095238095 
8192 1:4 2:4.8 3:7 4:0.071428571 5:0.042857143 6:0.071428571 
8192 1:9 2:5.8 3:9 4:0.071428571 5:0.019047619 6:0.071428571 
8192 1:9 2:7.8 3:9 4:0.071428571 5:0.1047619 6:0.19047619 
8192 1:1 2:2.2 3:6 4:0.19047619 5:0.22857143 6:0.47619048 
7818.40999578521 1:0 2:2.4 3:6 4:0.45238095 5:0.31904762 6:0.47619048 
8192 1:9 2:5.8 3:9 4:0.071428571 5:0.042857143 6:0.095238095 
8192 1:9 2:3.8 3:9 4:0.047619048 5:0.0095238095 6:0.047619048 
8192 1:2 2:4.8 3:8 4:0.16666667 5:0.24285714 6:0.52380952 
8192 1:7 2:5.4 3:9 4:0.047619048 5:0.023809524 6:0.047619048 
8192 1:3 2:3.2 3:6 4:0.023809524 5:0.0047619048 6:0.023809524 
2048.519832176978 1:6 2:5.2 3:7 4:0.54761905 5:0.32857143 6:0.61904762 
8192 1:7 2:7 3:9 4:0.11904762 5:0.1 6:0.19047619 
8192 1:8 2:5 3:9 4:0.095238095 5:0.042857143 6:0.095238095 
8192 1:0 2:3 3:8 4:0.071428571 5:0.019047619 6:0.071428571 
8192 1:7 2:3 3:8 4:0.023809524 5:0.028571429 6:0.071428571 
8192 1:6 2:4.4 3:8 4:0.064516129 5:0.058064516 6:0.096774194 
8192 1:4 2:5 3:8 4:0.064516129 5:0.12903226 6:0.41935484 
8192 1:6 2:4.2 3:7 4:0.064516129 5:0.15483871 6:0.48387097 
8192 1:4 2:5.6 3:8 4:0.064516129 5:0.077419355 6:0.16129032 
8192 1:8 2:5.4 3:8 4:0.19354839 5:0.14193548 6:0.29032258 
8192 1:7 2:3.6 3:7 4:0.064516129 5:0.16774194 6:0.61290323 
8192 1:3 2:5.4 3:9 4:0.032258065 5:0.012903226 6:0.032258065 
8192 1:0 2:0.8 3:3 4:0.032258065 5:0.12258065 6:0.4516129 
8192 1:7 2:4.2 3:9 4:0.096774194 5:0.032258065 6:0.096774194 
8192 1:6 2:5 3:7 4:0.22580645 5:0.064516129 6:0.22580645 
8192 1:0 2:0.4 3:1 4:0.032258065 5:0.019354839 6:0.032258065 
8192 1:0 2:5.2 3:7 4:0.096774194 5:0.23870968 6:0.48387097 
8192 1:8 2:5.6 3:8 4:0.064516129 5:0.077419355 6:0.16129032 
8192 1:5 2:1 3:5 4:0.064516129 5:0.025806452 6:0.064516129 
8192 1:3 2:3.2 3:4 4:0.032258065 5:0.0064516129 6:0.032258065 
8192 1:5 2:3.8 3:6 4:0.096774194 5:0.064516129 6:0.22580645 
8192 1:4 2:5.4 3:8 4:0.032258065 5:0.20645161 6:0.4516129 
8192 1:5 2:5.4 3:7 4:0.096774194 5:0.019354839 6:0.096774194 
8192 1:4 2:1.6 3:4 4:0.032258065 5:0.0064516129 6:0.032258065 
8192 1:5 2:5.8 3:8 4:0.22580645 5:0.20645161 6:0.29032258 
8192 1:0 2:1.4 3:5 4:0.064516129 5:0.025806452 6:0.064516129 
8192 1:3 2:3.8 3:7 4:0.032258065 5:0.032258065 6:0.064516129 
8192 1:1 2:0.8 3:3 4:0.032258065 5:0.032258065 6:0.064516129 
8192 1:7 2:4.2 3:9 4:0.096774194 5:0.077419355 6:0.29032258 
8192 1:2 2:1.6 3:3 4:0.032258065 5:0.025806452 6:0.032258065 
8192 1:2 2:5.2 3:8 4:0.064516129 5:0.038709677 6:0.064516129 
8192 1:3 2:3.4 3:9 4:0.032258065 5:0.096774194 6:0.35483871 
8192 1:0 2:0.8 3:2 4:0.032967033 5:0.015384615 6:0.032967033 
8192 1:6 2:5.8 3:8 4:0.032967033 5:0.0087912088 6:0.032967033 
8192 1:0 2:0.2 3:1 4:0.13186813 5:0.16043956 6:0.27472527 
8192 1:6 2:1.2 3:6 4:0.14285714 5:0.12747253 6:0.17582418 
8192 1:0 2:1.4 3:6 4:0.076923077 5:0.13406593 6:0.17582418 
8192 1:8 2:6 3:8 4:0.85714286 5:0.45714286 6:1 
8192 1:8 2:6 3:8 4:0.66666667 5:0.26666667 6:0.66666667 
8192 1:8 2:6.4 3:8 4:0.66666667 5:0.33333333 6:0.66666667 
8192 1:1 2:4.2 3:7 4:0.050632911 5:0.027848101 6:0.063291139 
8192 1:8 2:6.2 3:9 4:0.60759494 5:0.23797468 6:0.60759494 
8192 1:3 2:2.2 3:5 4:0.022727273 5:0.010606061 6:0.022727273 
8192 1:3 2:1.4 3:3 4:0.0075757576 5:0.0075757576 6:0.022727273 
8192 1:1 2:3.2 3:5 4:0.015151515 5:0.012121212 6:0.022727273 
8192 1:5 2:4.4 3:8 4:0.0075757576 5:0.17878788 6:0.45454545 
8192 1:6 2:3 3:6 4:0.0075757576 5:0.028787879 6:0.10606061 
8192 1:2 2:1.6 3:4 4:0.045454545 5:0.23636364 6:0.56060606 
8192 1:4 2:3.2 3:6 4:0.022727273 5:0.081818182 6:0.24242424 
8192 1:1 2:1.4 3:5 4:0.0075757576 5:0.003030303 6:0.0075757576 
8192 1:2 2:2.8 3:7 4:0.0075757576 5:0.0045454545 6:0.0075757576 
8192 1:5 2:2.8 3:5 4:0.0075757576 5:0.0045454545 6:0.0075757576 
8192 1:0 2:1.4 3:3 4:0.022727273 5:0.0090909091 6:0.022727273 
8192 1:7 2:2.2 3:7 4:0.0075757576 5:0.003030303 6:0.0075757576 
8192 1:5 2:3.8 3:8 4:0.0075757576 5:0.12121212 6:0.5530303 
8192 1:2 2:3.6 3:6 4:0.10606061 5:0.033333333 6:0.10606061 
8192 1:0 2:2.6 3:8 4:0.015151515 5:0.0090909091 6:0.015151515 
8192 1:4 2:3.6 3:8 4:0.03030303 5:0.18484848 6:0.52272727 
8192 1:1 2:2.4 3:6 4:0.015151515 5:0.033333333 6:0.090909091 
8192 1:4 2:2.2 3:4 4:0.007518797 5:0.0030075188 6:0.007518797 
8192 1:5 2:2.2 3:5 4:0.007518797 5:0.015037594 6:0.030075188 
8192 1:6 2:5.2 3:9 4:0.037593985 5:0.010526316 6:0.037593985 
8192 1:4 2:2.8 3:6 4:0.022556391 5:0.015037594 6:0.030075188 
8192 1:3 2:1.4 3:3 4:0.14285714 5:0.028571429 6:0.14285714 
3093.464410382726 1:6 2:2.6 3:7 4:0.14285714 5:0.34285714 6:0.85714286 
8192 1:7 2:5.2 3:8 4:0.14285714 5:0.13714286 6:0.37142857 
8192 1:3 2:5.2 3:9 4:0.028571429 5:0.0057142857 6:0.028571429 
8192 1:8 2:6.2 3:8 4:0.63636364 5:0.3 6:0.63636364 
2183.924956282449 1:8 2:7.6 3:8 4:0.59090909 5:0.31818182 6:0.63636364 
8192 1:5 2:2.8 3:5 4:0.04 5:0.032 6:0.08 
8192 1:4 2:4 3:7 4:0.04 5:0.088 6:0.16 
8192 1:3 2:4.8 3:8 4:0.04 5:0.04 6:0.12 
8192 1:3 2:2.8 3:5 4:0.04 5:0.024 6:0.04 
8192 1:0 2:3.8 3:7 4:0.04 5:0.016 6:0.04 
8135.258063891391 1:5 2:2.8 3:5 4:0.11764706 5:0.22941176 6:0.47058824 
8192 1:6 2:5.4 3:8 4:0.029411765 5:0.0058823529 6:0.029411765 
8192 1:5 2:4 3:5 4:0.029411765 5:0.052941176 6:0.11764706 
8192 1:2 2:2.6 3:8 4:0.029411765 5:0.035294118 6:0.11764706 
8192 1:2 2:3.8 3:9 4:0.47058824 5:0.30588235 6:0.47058824 
8192 1:8 2:2.6 3:8 4:0.11764706 5:0.035294118 6:0.11764706 
8192 1:0 2:4 3:8 4:0.029411765 5:0.10588235 6:0.35294118 
8192 1:5 2:3.4 3:5 4:0.029411765 5:0.035294118 6:0.058823529 
8192 1:2 2:5.6 3:8 4:0.029411765 5:0.017647059 6:0.029411765 
1199.675131429798 1:8 2:8.4 3:9 4:0.41666667 5:0.36666667 6:0.83333333 
8192 1:0 2:4.6 3:8 4:0.083333333 5:0.11666667 6:0.33333333 
7904.596444711314 1:7 2:6.6 3:9 4:0.25 5:0.16666667 6:0.33333333 
8192 1:8 2:3.6 3:8 4:0.047619048 5:0.20952381 6:0.9047619 
8192 1:5 2:3.8 3:9 4:0.047619048 5:0.019047619 6:0.047619048 
8192 1:5 2:3.4 3:7 4:0.095238095 5:0.37142857 6:0.85714286 
8192 1:1 2:6.2 3:9 4:0.047619048 5:0.13333333 6:0.52380952 
8192 1:0 2:1.8 3:8 4:0.095238095 5:0.11428571 6:0.23809524 
8192 1:6 2:2 3:6 4:0.19047619 5:0.13333333 6:0.23809524 
8192 1:7 2:4.4 3:8 4:0.57142857 5:0.41904762 6:0.57142857 
8192 1:5 2:5 3:9 4:0.047619048 5:0.13333333 6:0.52380952 
8192 1:2 2:2.2 3:6 4:0.19047619 5:0.21904762 6:0.61904762 
8192 1:0 2:3.2 3:5 4:0.095238095 5:0.038095238 6:0.095238095 
65.24044238318673 1:0 2:5.8 3:8 4:0.58823529 5:0.16470588 6:0.58823529 
8192 1:4 2:3.4 3:6 4:0.11764706 5:0.058823529 6:0.17647059 
8192 1:6 2:4.6 3:9 4:0.17647059 5:0.082352941 6:0.23529412 
8192 1:3 2:4.4 3:6 4:0.17647059 5:0.058823529 6:0.17647059 
8192 1:0 2:4.8 3:7 4:0.022222222 5:0.017777778 6:0.022222222 
8192 1:2 2:4.6 3:9 4:0.022222222 5:0.0044444444 6:0.022222222 
8192 1:0 2:1 3:3 4:0.028571429 5:0.022857143 6:0.057142857 
8192 1:7 2:5.4 3:7 4:0.11428571 5:0.10857143 6:0.28571429 
8192 1:6 2:6 3:7 4:0.028571429 5:0.10857143 6:0.34285714 
8192 1:6 2:5.2 3:7 4:0.14285714 5:0.17142857 6:0.34285714 
8192 1:6 2:2.8 3:6 4:0.25714286 5:0.074285714 6:0.25714286 
8192 1:5 2:4.4 3:8 4:0.057142857 5:0.17714286 6:0.57142857 
8192 1:6 2:3 3:6 4:0.028571429 5:0.011428571 6:0.028571429 
8192 1:8 2:4.4 3:8 4:0.2 5:0.045714286 6:0.2 
8192 1:5 2:6.2 3:8 4:0.028571429 5:0.051428571 6:0.2 
8192 1:5 2:4.4 3:7 4:0.028571429 5:0.045714286 6:0.17142857 
8192 1:2 2:3.8 3:6 4:0.11428571 5:0.074285714 6:0.25714286 
8192 1:0 2:0.8 3:3 4:0.028571429 5:0.022857143 6:0.057142857 
8192 1:7 2:6.8 3:9 4:0.085714286 5:0.19428571 6:0.6 
8192 1:6 2:6.6 3:9 4:0.2 5:0.21142857 6:0.6 
8192 1:4 2:5 3:7 4:0.28571429 5:0.14285714 6:0.28571429 
8192 1:4 2:5.2 3:8 4:0.22857143 5:0.26857143 6:0.57142857 
8192 1:7 2:5.4 3:7 4:0.028571429 5:0.0057142857 6:0.028571429 
8192 1:0 2:1.4 3:3 4:0.1 5:0.06 6:0.1 
8192 1:6 2:5.4 3:8 4:0.1 5:0.06 6:0.2 
963.0654905153007 1:2 2:6.2 3:8 4:0.6 5:0.2 6:0.6 
7023.951131703212 1:5 2:2.8 3:5 4:0.13076923 5:0.17846154 6:0.5 
8192 1:2 2:3.6 3:7 4:0.069230769 5:0.28461538 6:0.70769231 
4324.757081136786 1:0 2:3.2 3:7 4:0.092307692 5:0.18769231 6:0.70769231 
8192 1:7 2:6.2 3:8 4:0.53076923 5:0.38769231 6:0.53076923 
8192 1:0 2:0.6 3:3 4:0.015384615 5:0.024615385 6:0.046153846 
8192 1:1 2:2 3:8 4:0.0076923077 5:0.0046153846 6:0.0076923077 
8192 1:1 2:0.6 3:2 4:0.015384615 5:0.010769231 6:0.015384615 
8192 1:0 2:1 3:3 4:0.046153846 5:0.026153846 6:0.046153846 
7116.555941992751 1:3 2:3 3:8 4:0.46153846 5:0.18923077 6:0.46153846 
8192 1:7 2:3.2 3:7 4:0.70769231 5:0.38615385 6:0.70769231 
8192 1:1 2:3.6 3:8 4:0.23846154 5:0.25230769 6:0.5 
8192 1:3 2:2.4 3:4 4:0.125 5:0.085714286 6:0.125 
8192 1:8 2:4.4 3:8 4:0.46428571 5:0.24642857 6:0.57142857 
8192 1:4 2:1.8 3:4 4:0.017857143 5:0.010714286 6:0.035714286 
8192 1:9 2:7 3:9 4:0.57142857 5:0.22857143 6:0.57142857 
8192 1:6 2:4.2 3:9 4:0.14285714 5:0.11428571 6:0.14285714 
867.1842461070887 1:4 2:4.6 3:7 4:0.42857143 5:0.45714286 6:0.85714286 
8192 1:6 2:3.8 3:8 4:0.14285714 5:0.14285714 6:0.57142857 
6935.430710239408 1:4 2:5.8 3:9 4:0.71428571 5:0.54285714 6:0.85714286 
8192 1:7 2:6 3:8 4:0.57142857 5:0.4 6:0.57142857 
8192 1:8 2:4.2 3:8 4:0.71428571 5:0.2 6:0.71428571 
8192 1:5 2:3.8 3:5 4:0.42857143 5:0.085714286 6:0.42857143 
8192 1:5 2:4.4 3:8 4:0.28571429 5:0.22857143 6:0.71428571 
8192 1:7 2:5.2 3:7 4:0.6 5:0.44 6:0.6 
8192 1:0 2:4.6 3:8 4:0.05 5:0.05 6:0.2 
78.1288082454262 1:1 2:3.2 3:9 4:0.35 5:0.23 6:0.45 
8192 1:7 2:2.4 3:7 4:0.15 5:0.23 6:0.5 
8192 1:6 2:4.4 3:7 4:0.2 5:0.22 6:0.5 
8192 1:2 2:1.2 3:2 4:0.3 5:0.15 6:0.3 
8192 1:0 2:0.8 3:4 4:0.05 5:0.13 6:0.35 
8192 1:5 2:2.4 3:7 4:0.032258065 5:0.019354839 6:0.032258065 
8192 1:1 2:3.2 3:8 4:0.032258065 5:0.12258065 6:0.25806452 
8192 1:2 2:2.2 3:4 4:0.032258065 5:0.0064516129 6:0.032258065 
8192 1:6 2:3.2 3:6 4:0.032258065 5:0.051612903 6:0.096774194 
8192 1:1 2:3 3:8 4:0.032258065 5:0.012903226 6:0.032258065 
8192 1:0 2:1.4 3:4 4:0.032258065 5:0.019354839 6:0.064516129 
8192 1:0 2:2.4 3:7 4:0.032258065 5:0.012903226 6:0.032258065 
8192 1:2 2:3.8 3:6 4:0.096774194 5:0.04516129 6:0.096774194 
8192 1:4 2:3.2 3:6 4:0.12903226 5:0.10967742 6:0.22580645 
8192 1:4 2:2.4 3:6 4:0.032258065 5:0.04516129 6:0.096774194 
2460.527474679745 1:0 2:1.2 3:6 4:0.032258065 5:0.18064516 6:0.74193548 
8192 1:0 2:2.2 3:8 4:0.064516129 5:0.070967742 6:0.12903226 
8192 1:0 2:1.8 3:6 4:0.096774194 5:0.077419355 6:0.22580645 
8192 1:4 2:3 3:6 4:0.064516129 5:0.038709677 6:0.096774194 
8192 1:0 2:0.2 3:1 4:0.032258065 5:0.0064516129 6:0.032258065 
8192 1:0 2:1.4 3:4 4:0.12903226 5:0.04516129 6:0.12903226 
7629.781614705502 1:5 2:5 3:9 4:0.032258065 5:0.2 6:0.51612903 
8192 1:8 2:6.4 3:9 4:0.032258065 5:0.18064516 6:0.83870968 
8192 1:5 2:7 3:9 4:0.064516129 5:0.53548387 6:0.87096774 
8192 1:2 2:3 3:8 4:0.032258065 5:0.21935484 6:0.51612903 
8192 1:0 2:5 3:7 4:0.12903226 5:0.2516129 6:0.51612903 
8192 1:0 2:1.6 3:5 4:0.032258065 5:0.0064516129 6:0.032258065 
8192 1:1 2:4.4 3:8 4:0.064516129 5:0.038709677 6:0.12903226 
8192 1:1 2:4 3:9 4:0.087719298 5:0.094736842 6:0.21052632 
8192 1:6 2:3.8 3:6 4:0.12280702 5:0.11929825 6:0.31578947 
8192 1:6 2:3.4 3:6 4:0.10526316 5:0.028070175 6:0.10526316 
8192 1:1 2:3.8 3:9 4:0.15789474 5:0.15789474 6:0.28070175 
8192 1:7 2:6 3:8 4:0.21052632 5:0.10175439 6:0.21052632 
8192 1:1 2:2 3:4 4:0.01754386 5:0.021052632 6:0.035087719 
8192 1:7 2:4 3:7 4:0.087719298 5:0.042105263 6:0.087719298 
8192 1:9 2:4.4 3:9 4:0.21052632 5:0.15087719 6:0.28070175 
8192 1:2 2:2.2 3:5 4:0.087719298 5:0.024561404 6:0.087719298 
8192 1:5 2:3.2 3:6 4:0.2 5:0.12 6:0.2 
8192 1:5 2:3.6 3:6 4:0.04 5:0.064 6:0.12 
8192 1:6 2:4.2 3:6 4:0.2 5:0.12 6:0.2 
8192 1:2 2:4.6 3:7 4:0.04 5:0.104 6:0.28 
8192 1:0 2:3.8 3:6 4:0.24 5:0.12 6:0.24 
8192 1:5 2:4 3:6 4:0.08 5:0.128 6:0.24 
8192 1:2 2:3.8 3:6 4:0.04 5:0.104 6:0.24 
8192 1:3 2:2 3:5 4:0.18518519 5:0.28518519 6:0.57407407 
8192 1:6 2:6 3:7 4:0.055555556 5:0.022222222 6:0.055555556 
8192 1:3 2:2.6 3:7 4:0.16666667 5:0.15185185 6:0.22222222 
8192 1:7 2:3 3:7 4:0.22222222 5:0.15185185 6:0.22222222 
8192 1:2 2:2.8 3:5 4:0.018518519 5:0.025925926 6:0.092592593 
8192 1:6 2:4.2 3:6 4:0.018518519 5:0.014814815 6:0.018518519 
8192 1:5 2:2 3:5 4:0.092592593 5:0.17037037 6:0.53703704 
7164.768040958326 1:0 2:1 3:3 4:0.46296296 5:0.12962963 6:0.46296296 
8192 1:7 2:2.2 3:7 4:0.018518519 5:0.23703704 6:0.59259259 
8192 1:8 2:6.6 3:8 4:0.12403101 5:0.037209302 6:0.12403101 
8192 1:3 2:5.2 3:8 4:0.076923077 5:0.15384615 6:0.61538462 
8192 1:0 2:1.2 3:3 4:0.38461538 5:0.30769231 6:0.53846154 
8192 1:4 2:3.2 3:6 4:0.076923077 5:0.16923077 6:0.46153846 
8192 1:3 2:2.6 3:6 4:0.076923077 5:0.076923077 6:0.15384615 
8192 1:2 2:2.6 3:4 4:0.15384615 5:0.076923077 6:0.15384615 
8192 1:7 2:3.6 3:7 4:0.076923077 5:0.030769231 6:0.076923077 
8192 1:1 2:4 3:8 4:0.076923077 5:0.076923077 6:0.15384615 
8192 1:0 2:1.8 3:4 4:0.076923077 5:0.030769231 6:0.076923077 
8192 1:7 2:3.4 3:7 4:0.28571429 5:0.17142857 6:0.28571429 
8192 1:5 2:5.4 3:7 4:0.14285714 5:0.085714286 6:0.28571429 
8192 1:5 2:3.8 3:5 4:0.055555556 5:0.011111111 6:0.055555556 
8192 1:8 2:6.2 3:8 4:0.16666667 5:0.11111111 6:0.16666667 
8192 1:8 2:6 3:8 4:0.055555556 5:0.011111111 6:0.055555556 
8192 1:8 2:6.8 3:8 4:0.11111111 5:0.066666667 6:0.16666667 
8192 1:7 2:7.6 3:9 4:0.16666667 5:0.16666667 6:0.22222222 
8192 1:6 2:5.8 3:7 4:0.11111111 5:0.044444444 6:0.11111111 
8192 1:9 2:5 3:9 4:0.16666667 5:0.24444444 6:0.77777778 
8192 1:3 2:3.6 3:6 4:0.11111111 5:0.044444444 6:0.11111111 
8192 1:7 2:4.6 3:8 4:0.16666667 5:0.2 6:0.77777778 
8192 1:7 2:4.2 3:7 4:0.055555556 5:0.055555556 6:0.11111111 
8192 1:6 2:6.2 3:7 4:0.11111111 5:0.066666667 6:0.11111111 
8192 1:7 2:6.4 3:8 4:0.055555556 5:0.077777778 6:0.11111111 
8192 1:6 2:6.4 3:7 4:0.11111111 5:0.077777778 6:0.11111111 
8192 1:8 2:6.2 3:8 4:0.11111111 5:0.077777778 6:0.16666667 
8192 1:6 2:3.8 3:6 4:0.22222222 5:0.1 6:0.22222222 
8192 1:1 2:3.4 3:8 4:0.16666667 5:0.18888889 6:0.77777778 
8192 1:8 2:4.6 3:8 4:0.055555556 5:0.066666667 6:0.11111111 
8192 1:9 2:5 3:9 4:0.04494382 5:0.047191011 6:0.12359551 
8192 1:6 2:4 3:6 4:0.23595506 5:0.18426966 6:0.3258427 
8192 1:3 2:4.4 3:6 4:0.011235955 5:0.015730337 6:0.033707865 
8192 1:2 2:3.4 3:6 4:0.04494382 5:0.098876404 6:0.25842697 
8192 1:2 2:3.4 3:6 4:0.19101124 5:0.20224719 6:0.33707865 
8192 1:6 2:4.6 3:8 4:0.15730337 5:0.076404494 6:0.15730337 
8192 1:1 2:3.4 3:7 4:0.2247191 5:0.13258427 6:0.28089888 
8192 1:1 2:3.6 3:7 4:0.19101124 5:0.15280899 6:0.33707865 
527.806417650531 1:7 2:1.8 3:7 4:0.28089888 5:0.11460674 6:0.28089888 
8192 1:8 2:5.6 3:9 4:0.12359551 5:0.074157303 6:0.15730337 
8192 1:5 2:3.4 3:5 4:0.078651685 5:0.04494382 6:0.078651685 
8192 1:6 2:4.6 3:6 4:0.033707865 5:0.015730337 6:0.033707865 
8192 1:2 2:1.4 3:3 4:0.13333333 5:0.083333333 6:0.13333333 
8192 1:5 2:4.8 3:8 4:0.5 5:0.42 6:0.86666667 
8192 1:7 2:4 3:7 4:0.05 5:0.31666667 6:0.68333333 
8192 1:0 2:1.4 3:4 4:0.11666667 5:0.08 6:0.2 
8192 1:7 2:2.8 3:7 4:0.033333333 5:0.08 6:0.16666667 
8192 1:0 2:1.2 3:6 4:0.16666667 5:0.19333333 6:0.38333333 
8192 1:6 2:2.6 3:7 4:0.16666667 5:0.12333333 6:0.16666667 
8192 1:0 2:1.2 3:6 4:0.083333333 5:0.17333333 6:0.38333333 
8192 1:3 2:1.4 3:4 4:0.033333333 5:0.073333333 6:0.2 
8192 1:0 2:1 3:4 4:0.05 5:0.066666667 6:0.21666667 
8192 1:0 2:0.4 3:2 4:0.066666667 5:0.10333333 6:0.13333333 
8192 1:7 2:5.2 3:8 4:0.62790698 5:0.39534884 6:0.62790698 
8192 1:3 2:1.2 3:3 4:0.093023256 5:0.065116279 6:0.11627907 
4719.654754371464 1:0 2:1.4 3:4 4:0.51162791 5:0.12093023 6:0.51162791 
8192 1:1 2:2.6 3:5 4:0.093023256 5:0.093023256 6:0.25581395 
8192 1:4 2:4.2 3:6 4:0.046511628 5:0.023255814 6:0.069767442 
8192 1:1 2:0.8 3:3 4:0.3255814 5:0.11627907 6:0.3255814 
8192 1:0 2:1.8 3:7 4:0.27906977 5:0.11162791 6:0.27906977 
8192 1:0 2:1.4 3:3 4:0.023255814 5:0.046511628 6:0.11627907 
8192 1:0 2:3.4 3:5 4:0.046511628 5:0.079069767 6:0.18604651 
8192 1:3 2:1.2 3:3 4:0.023255814 5:0.10232558 6:0.13953488 
8192 1:8 2:4.2 3:8 4:0.18604651 5:0.08372093 6:0.18604651 
8192 1:1 2:2.2 3:7 4:0.23255814 5:0.11627907 6:0.27906977 
1618.727686235782 1:6 2:6 3:7 4:0.41860465 5:0.74883721 6:0.88372093 
8192 1:6 2:2 3:6 4:0.30232558 5:0.08372093 6:0.30232558 
8192 1:3 2:2.4 3:4 4:0.06097561 5:0.02195122 6:0.06097561 
8192 1:6 2:6.6 3:9 4:0.18292683 5:0.13902439 6:0.3902439 
8192 1:6 2:4.4 3:6 4:0.024390244 5:0.019512195 6:0.06097561 
8192 1:7 2:5 3:7 4:0.13414634 5:0.28292683 6:0.7804878 
8192 1:9 2:5 3:9 4:0.73170732 5:0.17073171 6:0.73170732 
8192 1:2 2:3.8 3:7 4:0.2 5:0.053333333 6:0.2 
8192 1:8 2:7.6 3:9 4:0.7 5:0.30555556 6:0.7 
8192 1:6 2:6.2 3:9 4:0.64444444 5:0.23777778 6:0.64444444 
8192 1:3 2:5.6 3:8 4:0.16666667 5:0.20111111 6:0.27777778 
8192 1:7 2:5.2 3:7 4:0.5 5:0.23666667 6:0.64444444 
8192 1:6 2:6.2 3:8 4:0.59444444 5:0.28444444 6:0.76111111 
8192 1:4 2:4.6 3:8 4:0.17647059 5:0.24117647 6:0.52941176 
8192 1:7 2:5.2 3:7 4:0.11764706 5:0.10588235 6:0.26470588 
8192 1:2 2:4 3:7 4:0.029411765 5:0.029411765 6:0.058823529 
8192 1:5 2:3.8 3:6 4:0.029411765 5:0.058823529 6:0.17647059 
8192 1:6 2:4.8 3:6 4:0.029411765 5:0.011764706 6:0.029411765 
8192 1:2 2:2.8 3:7 4:0.029411765 5:0.017647059 6:0.029411765 
8192 1:0 2:2.4 3:5 4:0.029411765 5:0.023529412 6:0.058823529 
8192 1:1 2:4.2 3:8 4:0.058823529 5:0.15882353 6:0.52941176 
8192 1:6 2:5.2 3:7 4:0.11111111 5:0.11111111 6:0.22222222 
5803.776829423517 1:7 2:5 3:7 4:0.25806452 5:0.058064516 6:0.25806452 
8192 1:2 2:2.6 3:9 4:0.12903226 5:0.064516129 6:0.12903226 
853.9768113620803 1:4 2:6.6 3:8 4:0.70967742 5:0.51612903 6:0.80645161 
7181.228206361066 1:3 2:3.2 3:7 4:0.87096774 5:0.43225806 6:0.87096774 
8192 1:0 2:3 3:9 4:0.096774194 5:0.058064516 6:0.12903226 
8192 1:3 2:2.4 3:7 4:0.22580645 5:0.051612903 6:0.22580645 
8192 1:2 2:1.2 3:3 4:0.032258065 5:0.025806452 6:0.064516129 
8192 1:6 2:5.2 3:9 4:0.18518519 5:0.12407407 6:0.32407407 
8192 1:4 2:2.6 3:5 4:0.027777778 5:0.016666667 6:0.027777778 
8192 1:3 2:4.8 3:8 4:0.14814815 5:0.16851852 6:0.56481481 
8192 1:2 2:3.2 3:6 4:0.10185185 5:0.044444444 6:0.10185185 
8192 1:9 2:4.4 3:9 4:0.066666667 5:0.026666667 6:0.066666667 
8192 1:4 2:3.6 3:7 4:0.24 5:0.093333333 6:0.24 
8192 1:0 2:0.8 3:4 4:0.29333333 5:0.16533333 6:0.29333333 
8192 1:0 2:2.4 3:8 4:0.21333333 5:0.085333333 6:0.21333333 
8192 1:0 2:1.8 3:6 4:0.10666667 5:0.17066667 6:0.29333333 
8192 1:8 2:3 3:8 4:0.12 5:0.074666667 6:0.21333333 
8192 1:6 2:5 3:9 4:0.10666667 5:0.082666667 6:0.24 
8192 1:6 2:1.8 3:6 4:0.21333333 5:0.14933333 6:0.21333333 
8192 1:0 2:3.2 3:7 4:0.18666667 5:0.11466667 6:0.21333333 
8192 1:0 2:1.8 3:5 4:0.17333333 5:0.192 6:0.29333333 
8192 1:7 2:7.4 3:9 4:0.058823529 5:0.029411765 6:0.088235294 
1403.168648175169 1:6 2:6.6 3:7 4:0.029411765 5:0.18235294 6:0.38235294 
8192 1:9 2:7.6 3:9 4:0.029411765 5:0.14117647 6:0.32352941 
8192 1:3 2:6.6 3:8 4:0.029411765 5:0.029411765 6:0.058823529 
8192 1:5 2:3.8 3:8 4:0.08 5:0.096 6:0.28 
8192 1:8 2:3.2 3:8 4:0.08 5:0.096 6:0.28 
8192 1:3 2:4.2 3:8 4:0.12 5:0.144 6:0.48 
8192 1:3 2:2.2 3:4 4:0.04 5:0.064 6:0.16 
8192 1:2 2:3.4 3:7 4:0.24 5:0.184 6:0.36 
8192 1:7 2:6.8 3:8 4:0.04 5:0.112 6:0.44 
8192 1:0 2:3.8 3:6 4:0.28 5:0.144 6:0.28 
8192 1:6 2:3.4 3:6 4:0.16 5:0.144 6:0.28 
8192 1:1 2:3.4 3:8 4:0.04 5:0.04 6:0.08 
8192 1:0 2:2.2 3:8 4:0.092198582 5:0.063829787 6:0.11347518 
4738.935491166973 1:0 2:2.4 3:8 4:0.46099291 5:0.14184397 6:0.46099291 
8192 1:3 2:1 3:3 4:0.0070921986 5:0.028368794 6:0.042553191 
8192 1:2 2:1.2 3:4 4:0.13475177 5:0.1248227 6:0.21276596 
8192 1:0 2:0.4 3:1 4:0.035460993 5:0.1177305 6:0.25531915 
1712.897479825526 1:8 2:6.2 3:8 4:0.80851064 5:0.17446809 6:0.80851064 
8192 1:5 2:4.6 3:7 4:0.5035461 5:0.38156028 6:0.71631206 
8192 1:0 2:2.6 3:7 4:0.20567376 5:0.2 6:0.41843972 
8192 1:4 2:4.8 3:7 4:0.092198582 5:0.19148936 6:0.71631206 
8192 1:7 2:5.6 3:7 4:0.54609929 5:0.4070922 6:0.54609929 
1671.16532860178 1:0 2:5.6 3:7 4:0.4822695 5:0.44397163 6:0.54609929 
8192 1:6 2:6.4 3:9 4:0.05 5:0.13 6:0.55 
8192 1:4 2:5.8 3:7 4:0.1 5:0.13 6:0.4 
8192 1:2 2:3 3:8 4:0.050847458 5:0.19322034 6:0.79661017 
8192 1:4 2:5.6 3:8 4:0.016949153 5:0.37627119 6:0.89830508 
8192 1:0 2:1.8 3:5 4:0.016949153 5:0.013559322 6:0.033898305 
8191.907695941209 1:8 2:6.8 3:8 4:0.85714286 5:0.45714286 6:1 
8192 1:7 2:4.2 3:7 4:0.13333333 5:0.093333333 6:0.13333333 
8192 1:7 2:3.6 3:7 4:0.13333333 5:0.10666667 6:0.13333333 
8192 1:3 2:4 3:7 4:0.13333333 5:0.08 6:0.13333333 
6706.370777573471 1:4 2:5 3:6 4:0.46666667 5:0.41333333 6:0.6 
8008.91839152835 1:6 2:4.6 3:7 4:0.2 5:0.2 6:0.53333333 
8192 1:6 2:2.6 3:6 4:0.13333333 5:0.053333333 6:0.13333333 
8192 1:9 2:2.6 3:9 4:0.066666667 5:0.026666667 6:0.066666667 
8192 1:4 2:3.4 3:5 4:0.2 5:0.14666667 6:0.26666667 
8192 1:7 2:6 3:7 4:0.53333333 5:0.32 6:0.53333333 
8192 1:7 2:3.4 3:7 4:0.13333333 5:0.066666667 6:0.13333333 
8192 1:4 2:3.8 3:5 4:0.13333333 5:0.053333333 6:0.13333333 
8192 1:6 2:2.4 3:6 4:0.13333333 5:0.10666667 6:0.2 
8192 1:1 2:3.6 3:5 4:0.066666667 5:0.12 6:0.26666667 
8192 1:4 2:4.2 3:7 4:0.13333333 5:0.10666667 6:0.13333333 
8192 1:5 2:3.6 3:5 4:0.26666667 5:0.13333333 6:0.26666667 
8192 1:6 2:3 3:6 4:0.2 5:0.13333333 6:0.2 
8192 1:6 2:4.4 3:6 4:0.13333333 5:0.04 6:0.13333333 
8192 1:3 2:4.6 3:6 4:0.53333333 5:0.41333333 6:0.66666667 
8192 1:4 2:4.6 3:7 4:0.13333333 5:0.093333333 6:0.13333333 
8192 1:5 2:3.2 3:6 4:0.2 5:0.066666667 6:0.2 
8192 1:6 2:3.6 3:6 4:0.2 5:0.10666667 6:0.2 
8192 1:5 2:2.8 3:5 4:0.13333333 5:0.04 6:0.13333333 
8192 1:7 2:5 3:8 4:0.13333333 5:0.053333333 6:0.13333333 
8192 1:3 2:3.6 3:5 4:0.066666667 5:0.08 6:0.26666667 
8192 1:3 2:2.4 3:5 4:0.066666667 5:0.066666667 6:0.13333333 
8192 1:4 2:4.6 3:7 4:0.13333333 5:0.12 6:0.13333333 
8192 1:4 2:4 3:9 4:0.13333333 5:0.10666667 6:0.26666667 
8192 1:0 2:0.4 3:2 4:0.14285714 5:0.085714286 6:0.14285714 
8192 1:2 2:0.4 3:2 4:0.14285714 5:0.085714286 6:0.14285714 
8192 1:0 2:1.6 3:6 4:0.14285714 5:0.085714286 6:0.14285714 
8192 1:1 2:1.8 3:8 4:0.14285714 5:0.028571429 6:0.14285714 
8192 1:7 2:4.8 3:9 4:0.55813953 5:0.39534884 6:0.55813953 
434.9989590016103 1:7 2:3.6 3:7 4:0.69767442 5:0.37209302 6:0.69767442 
8192 1:0 2:1.2 3:5 4:0.031007752 5:0.074418605 6:0.2248062 
8192 1:0 2:1.4 3:6 4:0.2248062 5:0.18449612 6:0.35658915 
8192 1:0 2:0 3:0 4:0.10852713 5:0.066666667 6:0.10852713 
3038.434166555917 1:2 2:6 3:8 4:0.17054264 5:0.31782946 6:0.52713178 
8192 1:7 2:5.4 3:7 4:0.51937984 5:0.3751938 6:0.51937984 
8192 1:4 2:1.8 3:4 4:0.17054264 5:0.18294574 6:0.36434109 
8192 1:6 2:4.8 3:7 4:0.093023256 5:0.16899225 6:0.36434109 
8192 1:1 2:3 3:7 4:0.34883721 5:0.25116279 6:0.36434109 
8192 1:0 2:1.4 3:5 4:0.10852713 5:0.03875969 6:0.10852713 
41.22496352272717 1:6 2:3.6 3:7 4:0.38709677 5:0.2 6:0.38709677 
8192 1:3 2:3.6 3:7 4:0.012658228 5:0.0075949367 6:0.012658228 
8192 1:0 2:0 3:0 4:0.050632911 5:0.032911392 6:0.050632911 
8192 1:0 2:0.8 3:1 4:0.012658228 5:0.015189873 6:0.025316456 
8192 1:1 2:3.2 3:7 4:0.012658228 5:0.010126582 6:0.025316456 
8192 1:0 2:2.4 3:6 4:0.012658228 5:0.0050632911 6:0.012658228 
8192 1:0 2:1.4 3:5 4:0.037974684 5:0.02278481 6:0.050632911 
8192 1:5 2:1.2 3:5 4:0.050632911 5:0.032911392 6:0.050632911 
8192 1:0 2:2.2 3:5 4:0.012658228 5:0.040506329 6:0.075949367 
8192 1:4 2:3.6 3:6 4:0.012658228 5:0.015189873 6:0.037974684 
8192 1:8 2:4 3:8 4:0.71428571 5:0.15714286 6:0.71428571 
1365.648865542423 1:0 2:0.8 3:2 4:0.42857143 5:0.32857143 6:0.57142857 
8192 1:3 2:1.8 3:6 4:0.21428571 5:0.24285714 6:0.5 
7168.113013996812 1:2 2:1.6 3:5 4:0.21428571 5:0.3 6:0.57142857 
8192 1:9 2:4.2 3:9 4:0.71428571 5:0.2 6:0.71428571 
8192 1:0 2:1.2 3:4 4:0.35714286 5:0.31428571 6:0.57142857 
3345.959186572877 1:5 2:3.6 3:9 4:0.85714286 5:0.68571429 6:0.85714286 
8192 1:0 2:0.8 3:3 4:0.071428571 5:0.14285714 6:0.57142857 
5184.230693939706 1:0 2:0.6 3:3 4:0.92857143 5:0.55714286 6:0.92857143 
8192 1:1 2:2.4 3:7 4:0.083333333 5:0.13333333 6:0.16666667 
8192 1:2 2:2.4 3:5 4:0.16666667 5:0.1 6:0.16666667 
8192 1:4 2:3.8 3:8 4:0.083333333 5:0.083333333 6:0.16666667 
8192 1:7 2:4.6 3:8 4:0.083333333 5:0.083333333 6:0.16666667 
8192 1:6 2:4.8 3:8 4:0.083333333 5:0.083333333 6:0.16666667 
8192 1:3 2:3.8 3:8 4:0.083333333 5:0.05 6:0.083333333 
8192 1:0 2:0 3:0 4:0.011363636 5:0.0090909091 6:0.034090909 
8192 1:3 2:2.6 3:4 4:0.011363636 5:0.063636364 6:0.20454545 
8192 1:0 2:1.6 3:3 4:0.022727273 5:0.022727273 6:0.045454545 
8192 1:1 2:2 3:4 4:0.17045455 5:0.16136364 6:0.21590909 
8192 1:3 2:2.8 3:4 4:0.11363636 5:0.14090909 6:0.20454545 
8192 1:0 2:0.6 3:3 4:0.011363636 5:0.013636364 6:0.034090909 
8192 1:3 2:1 3:3 4:0.034090909 5:0.013636364 6:0.034090909 
8192 1:8 2:4 3:8 4:0.034090909 5:0.029545455 6:0.034090909 
7733.086344532471 1:4 2:2.2 3:4 4:0.21590909 5:0.23181818 6:0.31818182 
8192 1:0 2:1 3:3 4:0.011363636 5:0.034090909 6:0.090909091 
8192 1:2 2:2.2 3:4 4:0.18181818 5:0.20681818 6:0.31818182 
8192 1:9 2:5.2 3:9 4:0.74545455 5:0.29818182 6:0.74545455 
8192 1:5 2:3 3:5 4:0.16363636 5:0.17090909 6:0.36363636 
8192 1:7 2:2.6 3:7 4:0.18181818 5:0.058181818 6:0.18181818 
8192 1:3 2:4.6 3:6 4:0.0078740157 5:0.11968504 6:0.51181102 
8192 1:5 2:1.6 3:5 4:0.015151515 5:0.0060606061 6:0.015151515 
8192 1:2 2:1.8 3:3 4:0.015151515 5:0.003030303 6:0.015151515 
8192 1:2 2:1.4 3:2 4:0.015151515 5:0.0060606061 6:0.015151515 
8192 1:2 2:2 3:5 4:0.015151515 5:0.0090909091 6:0.015151515 
8192 1:3 2:4.4 3:7 4:0.25757576 5:0.10909091 6:0.25757576 
8192 1:0 2:2.4 3:3 4:0.015151515 5:0.018181818 6:0.060606061 
8192 1:5 2:3.4 3:8 4:0.075757576 5:0.039393939 6:0.075757576 
8192 1:3 2:2.6 3:5 4:0.045454545 5:0.033333333 6:0.060606061 
8192 1:5 2:4.8 3:7 4:0.24242424 5:0.11515152 6:0.25757576 
8192 1:2 2:3 3:6 4:0.015151515 5:0.0090909091 6:0.015151515 
8192 1:3 2:2.6 3:4 4:0.060606061 5:0.063636364 6:0.22727273 
2325.827952975578 1:0 2:1.6 3:8 4:0.4 5:0.09 6:0.4 
8192 1:8 2:5 3:8 4:0.65 5:0.14 6:0.65 
5590.137476182254 1:0 2:1.6 3:8 4:0.05 5:0.09 6:0.4 
4245.413196029463 1:0 2:4.4 3:8 4:0.7 5:0.31 6:0.7 
5003.794578698195 1:3 2:4.6 3:9 4:0.5 5:0.3 6:0.5 
8192 1:7 2:5 3:7 4:0.038461538 5:0.1 6:0.46153846 
364.9967402229686 1:8 2:6.6 3:9 4:0.2 5:0.2 6:0.6 
8192 1:7 2:5.8 3:8 4:0.2 5:0.24 6:0.8 
8192 1:6 2:4.8 3:6 4:0.2 5:0.04 6:0.2 
4831.999777471698 1:1 2:4.8 3:7 4:0.2 5:0.28 6:0.8 
571.9125947845616 1:2 2:6.2 3:8 4:0.2 5:0.08 6:0.2 
445.4999174714109 1:3 2:4.4 3:7 4:0.053435115 5:0.23664122 6:0.54961832 
8192 1:3 2:2 3:3 4:0.015267176 5:0.021374046 6:0.053435115 
8192 1:0 2:3.2 3:7 4:0.015267176 5:0.0030534351 6:0.015267176 
8192 1:3 2:3.2 3:7 4:0.0076335878 5:0.025954198 6:0.099236641 
8192 1:7 2:2.4 3:7 4:0.0076335878 5:0.016793893 6:0.030534351 
8192 1:3 2:5 3:8 4:0.18320611 5:0.32366412 6:0.52671756 
8192 1:0 2:4.4 3:9 4:0.030534351 5:0.13129771 6:0.51145038 
7376.037933292155 1:1 2:2 3:7 4:0.022900763 5:0.15725191 6:0.69465649 
8192 1:4 2:4.4 3:8 4:0.0076335878 5:0.015267176 6:0.045801527 
8192 1:7 2:3.6 3:7 4:0.0076335878 5:0.019847328 6:0.061068702 
7047.771899487937 1:0 2:3 3:7 4:0.061068702 5:0.22900763 6:0.53435115 
8192 1:2 2:3.2 3:8 4:0.0076335878 5:0.12366412 6:0.55725191 
8192 1:5 2:4 3:9 4:0.038167939 5:0.033587786 6:0.045801527 
8192 1:8 2:5.8 3:8 4:0.045801527 5:0.15419847 6:0.52671756 
47.05743000044783 1:3 2:3.2 3:6 4:0.022900763 5:0.12824427 6:0.54198473 
507.8568858793089 1:0 2:4.6 3:8 4:0.045801527 5:0.23664122 6:0.57251908 
4210.286308608294 1:1 2:3 3:9 4:0.015267176 5:0.18473282 6:0.79389313 
3150.998814946635 1:3 2:4 3:7 4:0.0076335878 5:0.1129771 6:0.44274809 
552.1551466371203 1:3 2:2.2 3:7 4:0.015267176 5:0.12366412 6:0.52671756 
8192 1:4 2:3.2 3:6 4:0.0076335878 5:0.0045801527 6:0.0076335878 
8192 1:7 2:6.4 3:8 4:0.54961832 5:0.43206107 6:0.5648855 
8192 1:6 2:4.2 3:7 4:0.0076335878 5:0.0091603053 6:0.015267176 
8192 1:3 2:2.8 3:4 4:0.0076335878 5:0.0030534351 6:0.0076335878 
8192 1:8 2:3.6 3:8 4:0.0076335878 5:0.010687023 6:0.030534351 
8192 1:3 2:2.8 3:6 4:0.076335878 5:0.021374046 6:0.076335878 
8192 1:3 2:3.4 3:6 4:0.0076335878 5:0.0061068702 6:0.0076335878 
8192 1:6 2:5.8 3:7 4:0.0076335878 5:0.12366412 6:0.53435115 
8192 1:1 2:4 3:7 4:0.0076335878 5:0.010687023 6:0.015267176 
8192 1:6 2:6 3:7 4:0.022900763 5:0.01221374 6:0.022900763 
8192 1:7 2:5.8 3:7 4:0.015267176 5:0.21221374 6:0.52671756 
8192 1:6 2:2.6 3:6 4:0.015267176 5:0.024427481 6:0.076335878 
8192 1:2 2:0.4 3:2 4:0.038461538 5:0.015384615 6:0.038461538 
8192 1:0 2:1.2 3:2 4:0.038461538 5:0.023076923 6:0.038461538 
8192 1:1 2:2.2 3:4 4:0.11538462 5:0.12307692 6:0.23076923 
8192 1:0 2:4.4 3:7 4:0.023255814 5:0.012403101 6:0.023255814 
8192 1:3 2:6.4 3:8 4:0.015503876 5:0.1255814 6:0.52713178 
8192 1:5 2:6 3:9 4:0.090909091 5:0.16363636 6:0.45454545 
8192 1:7 2:5 3:8 4:0.090909091 5:0.018181818 6:0.090909091 
8192 1:6 2:6 3:7 4:0.090909091 5:0.054545455 6:0.090909091 
8192 1:6 2:6.6 3:8 4:0.029411765 5:0.052941176 6:0.11764706 
8192 1:8 2:6.6 3:8 4:0.058823529 5:0.047058824 6:0.11764706 
8192 1:7 2:7.4 3:9 4:0.058823529 5:0.029411765 6:0.088235294 
8000.258409880927 1:6 2:6.6 3:7 4:0.029411765 5:0.18235294 6:0.38235294 
8192 1:3 2:6.6 3:8 4:0.029411765 5:0.029411765 6:0.058823529 
8192 1:9 2:7.6 3:9 4:0.029411765 5:0.14117647 6:0.32352941 
8192 1:7 2:7.2 3:8 4:0.11764706 5:0.052941176 6:0.11764706 
8192 1:4 2:3.6 3:8 4:0.045801527 5:0.18015267 6:0.83206107 
748.2459198914837 1:0 2:2.6 3:9 4:0.061068702 5:0.2870229 6:0.80916031 
8192 1:4 2:5.2 3:7 4:0.17647059 5:0.15294118 6:0.17647059 
8192 1:4 2:3.8 3:7 4:0.058823529 5:0.023529412 6:0.058823529 
3400.732375135047 1:7 2:6 3:9 4:0.17647059 5:0.2 6:0.23529412 
1830.490835509157 1:7 2:5.6 3:7 4:0.23529412 5:0.082352941 6:0.23529412 
8192 1:3 2:5.2 3:7 4:0.17647059 5:0.14117647 6:0.17647059 
8192 1:5 2:5.2 3:8 4:0.058823529 5:0.082352941 6:0.29411765 
8192 1:5 2:3.2 3:5 4:0.058823529 5:0.011764706 6:0.058823529 
8192 1:4 2:3 3:5 4:0.058823529 5:0.023529412 6:0.058823529 
8192 1:7 2:5.4 3:8 4:0.17647059 5:0.10588235 6:0.17647059 
8192 1:4 2:5.2 3:7 4:0.11764706 5:0.12941176 6:0.17647059 
8192 1:5 2:5.8 3:8 4:0.17647059 5:0.2 6:0.82352941 
8192 1:4 2:4.6 3:7 4:0.11764706 5:0.047058824 6:0.11764706 
8192 1:7 2:5 3:7 4:0.058823529 5:0.070588235 6:0.11764706 
8192 1:5 2:5 3:7 4:0.11764706 5:0.094117647 6:0.17647059 
8192 1:1 2:4.2 3:7 4:0.050632911 5:0.027848101 6:0.063291139 
8192 1:8 2:6.2 3:9 4:0.60759494 5:0.23797468 6:0.60759494 
8192 1:0 2:2.4 3:8 4:0.25806452 5:0.10322581 6:0.25806452 
8192 1:8 2:2.6 3:8 4:0.16129032 5:0.10322581 6:0.19354839 
8192 1:0 2:2.4 3:7 4:0.096774194 5:0.038709677 6:0.096774194 
97.20260561915498 1:8 2:7 3:9 4:0.70967742 5:0.21290323 6:0.70967742 
8192 1:0 2:2.4 3:7 4:0.064516129 5:0.04516129 6:0.096774194 
8192 1:0 2:4.6 3:8 4:0.67741935 5:0.47741935 6:0.74193548 
8192 1:3 2:4.2 3:9 4:0.58064516 5:0.24516129 6:0.61290323 
1090.848552703692 1:3 2:4.2 3:8 4:0.74193548 5:0.43870968 6:0.74193548 
8192 1:9 2:5 3:9 4:0.12903226 5:0.18709677 6:0.70967742 
8192 1:3 2:4.4 3:9 4:0.25806452 5:0.21935484 6:0.77419355 
8192 1:8 2:5.4 3:8 4:0.054263566 5:0.035658915 6:0.085271318 
8192 1:1 2:3 3:9 4:0.007751938 5:0.007751938 6:0.015503876 
8192 1:8 2:6 3:8 4:0.70542636 5:0.20775194 6:0.70542636 
8192 1:8 2:4.8 3:8 4:0.062015504 5:0.096124031 6:0.20155039 
8192 1:3 2:2.6 3:9 4:0.007751938 5:0.010852713 6:0.023255814 
8192 1:7 2:4.2 3:7 4:0.007751938 5:0.021705426 6:0.085271318 
8192 1:1 2:2.6 3:6 4:0.015503876 5:0.055813953 6:0.17054264 
8192 1:8 2:5.6 3:8 4:0.085271318 5:0.057364341 6:0.10852713 
8192 1:7 2:3 3:7 4:0.031007752 5:0.012403101 6:0.031007752 
8192 1:5 2:6 3:8 4:0.085271318 5:0.16899225 6:0.70542636 
8192 1:1 2:4.8 3:9 4:0.015503876 5:0.040310078 6:0.10852713 
8192 1:1 2:4.4 3:8 4:0.015503876 5:0.055813953 6:0.20155039 
8192 1:1 2:3.4 3:6 4:0.023255814 5:0.012403101 6:0.023255814 
156.1472628602533 1:6 2:6 3:8 4:0.375 5:0.075 6:0.375 
8192 1:8 2:5.6 3:8 4:0.125 5:0.125 6:0.5 
8192 1:8 2:6.8 3:8 4:0.125 5:0.225 6:0.5 
8192 1:7 2:4.2 3:7 4:0.6 5:0.24 6:0.6 
8192 1:7 2:5.4 3:7 4:0.6 5:0.24 6:0.6 
8192 1:6 2:6.2 3:9 4:0.055555556 5:0.011111111 6:0.055555556 
8192 1:5 2:6 3:9 4:0.22222222 5:0.1 6:0.22222222 
8192 1:2 2:1.8 3:3 4:0.083333333 5:0.016666667 6:0.083333333 
8192 1:7 2:7.4 3:9 4:0.09375 5:0.18125 6:0.65625 
8192 1:6 2:6 3:9 4:0.055555556 5:0.011111111 6:0.055555556 
8192 1:5 2:3.2 3:7 4:0.055555556 5:0.011111111 6:0.055555556 
8192 1:8 2:6.4 3:8 4:0.11111111 5:0.022222222 6:0.11111111 
8192 1:2 2:1.8 3:4 4:0.12 5:0.024 6:0.12 
8192 1:4 2:2 3:4 4:0.04 5:0.032 6:0.12 
8192 1:5 2:3.4 3:6 4:0.08 5:0.056 6:0.08 
8192 1:8 2:5.2 3:8 4:0.64 5:0.176 6:0.64 
8192 1:4 2:2.4 3:4 4:0.12 5:0.04 6:0.12 
8192 1:2 2:4 3:7 4:0.32 5:0.2 6:0.32 
8192 1:3 2:4.4 3:7 4:0.04 5:0.096 6:0.32 
8192 1:3 2:4.8 3:7 4:0.08 5:0.032 6:0.08 
8192 1:1 2:2.6 3:5 4:0.04 5:0.048 6:0.08 
8192 1:6 2:6.2 3:8 4:0.25 5:0.15 6:0.25 
5784.60996751544 1:5 2:5.2 3:8 4:0.25 5:0.15 6:0.25 
8192 1:5 2:5.4 3:7 4:0.14285714 5:0.11428571 6:0.14285714 
8192 1:2 2:5.8 3:8 4:0.14285714 5:0.085714286 6:0.14285714 
8192 1:9 2:7.2 3:9 4:0.14285714 5:0.057142857 6:0.14285714 
8192 1:7 2:8 3:9 4:0.14285714 5:0.085714286 6:0.14285714 
8192 1:9 2:5.8 3:9 4:0.14285714 5:0.028571429 6:0.14285714 
8192 1:7 2:5.6 3:8 4:0.14285714 5:0.11428571 6:0.14285714 
8192 1:7 2:5 3:7 4:0.14285714 5:0.057142857 6:0.14285714 
8192 1:1 2:2.8 3:6 4:0.14285714 5:0.028571429 6:0.14285714 
8192 1:6 2:4 3:6 4:0.14285714 5:0.085714286 6:0.28571429 
8192 1:7 2:5.8 3:7 4:0.14285714 5:0.14285714 6:0.42857143 
8192 1:1 2:2.6 3:7 4:0.14285714 5:0.028571429 6:0.14285714 
8192 1:0 2:1.8 3:6 4:0.14285714 5:0.028571429 6:0.14285714 
5751.818504830002 1:1 2:4.2 3:5 4:0.14285714 5:0.028571429 6:0.14285714 
8153.183005708959 1:7 2:7 3:9 4:0.67741935 5:0.43225806 6:0.74193548 
8192 1:5 2:5 3:7 4:0.58064516 5:0.53548387 6:0.70967742 
8192 1:8 2:5 3:8 4:0.67741935 5:0.15483871 6:0.67741935 
8192 1:5 2:5.2 3:7 4:0.29032258 5:0.34193548 6:0.67741935 
8192 1:3 2:3.8 3:5 4:0.19354839 5:0.34193548 6:0.58064516 
8192 1:3 2:3.2 3:7 4:0.03125 5:0.0083333333 6:0.03125 
8192 1:3 2:2 3:4 4:0.010416667 5:0.010416667 6:0.010416667 
8192 1:0 2:2.4 3:5 4:0.05 5:0.01 6:0.05 
8192 1:6 2:7 3:8 4:0.05 5:0.11 6:0.4 
8192 1:8 2:6.8 3:8 4:0.05 5:0.12 6:0.4 
8192 1:8 2:5.4 3:8 4:0.05 5:0.09 6:0.25 
8192 1:8 2:4 3:8 4:0.1 5:0.02 6:0.1 
8192 1:0 2:2.8 3:6 4:0.10714286 5:0.16071429 6:0.57142857 
8192 1:1 2:2.2 3:4 4:0.035714286 5:0.010714286 6:0.035714286 
8192 1:0 2:3.2 3:8 4:0.053571429 5:0.12142857 6:0.46428571 
8192 1:2 2:2.6 3:4 4:0.053571429 5:0.089285714 6:0.16071429 
8192 1:2 2:1.8 3:3 4:0.017857143 5:0.010714286 6:0.035714286 
8192 1:7 2:7.2 3:9 4:0.053191489 5:0.17021277 6:0.37234043 
8192 1:3 2:4.8 3:7 4:0.12765957 5:0.15957447 6:0.20212766 
8192 1:9 2:4.2 3:9 4:0.010638298 5:0.014893617 6:0.031914894 
8192 1:9 2:4.6 3:9 4:0.042553191 5:0.057446809 6:0.095744681 
8192 1:0 2:3.2 3:7 4:0.021276596 5:0.017021277 6:0.021276596 
8192 1:4 2:5.2 3:7 4:0.15957447 5:0.15106383 6:0.20212766 
8192 1:1 2:1.6 3:6 4:0.010638298 5:0.017021277 6:0.031914894 
8192 1:0 2:2.8 3:8 4:0.010638298 5:0.010638298 6:0.021276596 
8192 1:7 2:6.2 3:9 4:0.15957447 5:0.16170213 6:0.22340426 
